{"learner":{"attributes":{"scikit_learn":"{\"_estimator_type\": \"classifier\"}"},"feature_names":["avg_grade","grade_consistency","grade_range","num_assessments","assessment_completion_rate","studied_credits","num_of_prev_attempts","low_performance","low_engagement","has_previous_attempts"],"feature_types":["float","float","float","float","float","int","int","int","int","int"],"gradient_booster":{"model":{"gbtree_model_param":{"num_parallel_tree":"1","num_trees":"200"},"iteration_indptr":[0,1,2,3,4,5,6,7,8,9,10,11,12,13,14,15,16,17,18,19,20,21,22,23,24,25,26,27,28,29,30,31,32,33,34,35,36,37,38,39,40,41,42,43,44,45,46,47,48,49,50,51,52,53,54,55,56,57,58,59,60,61,62,63,64,65,66,67,68,69,70,71,72,73,74,75,76,77,78,79,80,81,82,83,84,85,86,87,88,89,90,91,92,93,94,95,96,97,98,99,100,101,102,103,104,105,106,107,108,109,110,111,112,113,114,115,116,117,118,119,120,121,122,123,124,125,126,127,128,129,130,131,132,133,134,135,136,137,138,139,140,141,142,143,144,145,146,147,148,149,150,151,152,153,154,155,156,157,158,159,160,161,162,163,164,165,166,167,168,169,170,171,172,173,174,175,176,177,178,179,180,181,182,183,184,185,186,187,188,189,190,191,192,193,194,195,196,197,198,199,200],"tree_info":[0,0,0,0,0,0,0,0,0,0,0,0,0,0,0,0,0,0,0,0,0,0,0,0,0,0,0,0,0,0,0,0,0,0,0,0,0,0,0,0,0,0,0,0,0,0,0,0,0,0,0,0,0,0,0,0,0,0,0,0,0,0,0,0,0,0,0,0,0,0,0,0,0,0,0,0,0,0,0,0,0,0,0,0,0,0,0,0,0,0,0,0,0,0,0,0,0,0,0,0,0,0,0,0,0,0,0,0,0,0,0,0,0,0,0,0,0,0,0,0,0,0,0,0,0,0,0,0,0,0,0,0,0,0,0,0,0,0,0,0,0,0,0,0,0,0,0,0,0,0,0,0,0,0,0,0,0,0,0,0,0,0,0,0,0,0,0,0,0,0,0,0,0,0,0,0,0,0,0,0,0,0,0,0,0,0,0,0,0,0,0,0,0,0,0,0,0,0,0,0],"trees":[{"base_weights":[-5.335854E-3,1.9651712E0,-9.322348E-1,1.9927505E-1,1.7797816E0,2.0970074E-2,-1.2632596E0,1.3946779E-1,1.8172602E-1,1.4180105E0,-1.5341632E-1,-5.3893495E-1,-1.4933572E0,9.0926033E-1,1.6275421E0,7.802571E-1,-3.5925066E-1,-6.730615E-1,7.090316E-1,-1.1559513E0,-1.6644126E0,1.355518E-1,6.3349195E-2,1.6826306E-1,6.4934365E-2,1.2236672E-2,1.1020136E-1,-4.8457007E-3,-5.5834122E-2,-1.20185114E-1,-4.4832174E-2,3.872058E-2,1.2819684E-1,-9.060078E-2,-1.3329194E-1,-1.6840135E-1,-8.407921E-2],"categories":[],"categories_nodes":[],"categories_segments":[],"categories_sizes":[],"default_left":[0,0,0,0,0,0,0,0,0,0,0,0,0,0,0,0,0,0,0,0,0,0,0,0,0,0,0,0,0,0,0,0,0,0,0,0,0],"id":0,"left_children":[1,3,5,-1,7,9,11,-1,-1,13,15,17,19,21,23,25,27,29,31,33,35,-1,-1,-1,-1,-1,-1,-1,-1,-1,-1,-1,-1,-1,-1,-1,-1],"loss_changes":[9.53053E3,4.987793E0,1.1197783E3,0E0,7.2058105E-1,2.23308E2,4.3819678E2,0E0,0E0,9.363129E0,1.5690788E2,1.0703345E2,1.13416504E2,3.0717106E0,2.7214966E0,3.1094704E1,4.1334885E1,6.783304E1,1.098452E1,2.8674866E1,1.995581E1,0E0,0E0,0E0,0E0,0E0,0E0,0E0,0E0,0E0,0E0,0E0,0E0,0E0,0E0,0E0,0E0],"parents":[2147483647,0,0,1,1,2,2,4,4,5,5,6,6,9,9,10,10,11,11,12,12,13,13,14,14,15,15,16,16,17,17,18,18,19,19,20,20],"right_children":[2,4,6,-1,8,10,12,-1,-1,14,16,18,20,22,24,26,28,30,32,34,36,-1,-1,-1,-1,-1,-1,-1,-1,-1,-1,-1,-1,-1,-1,-1,-1],"split_conditions":[1.4285715E-1,1.0714286E-1,6.7833336E1,1.9927505E-1,4E1,1.7857143E-1,2.5E-1,1.3946779E-1,1.8172602E-1,2.9E1,5.0666668E1,1E0,7.8166664E1,5.48E1,6.7E1,2.1428572E-1,5.975E1,1.6E1,1.05E2,3.9285713E-1,1.7E2,1.355518E-1,6.3349195E-2,1.6826306E-1,6.4934365E-2,1.2236672E-2,1.1020136E-1,-4.8457007E-3,-5.5834122E-2,-1.20185114E-1,-4.4832174E-2,3.872058E-2,1.2819684E-1,-9.060078E-2,-1.3329194E-1,-1.6840135E-1,-8.407921E-2],"split_indices":[4,4,0,0,5,4,4,0,0,2,0,6,0,0,0,4,0,2,5,4,5,0,0,0,0,0,0,0,0,0,0,0,0,0,0,0,0],"split_type":[0,0,0,0,0,0,0,0,0,0,0,0,0,0,0,0,0,0,0,0,0,0,0,0,0,0,0,0,0,0,0,0,0,0,0,0,0],"sum_hessian":[5.2160283E3,1.6682828E3,3.5477454E3,1.4437552E3,2.2452759E2,9.147131E2,2.6330322E3,2.3302362E1,2.0122522E2,1.00717316E2,8.139958E2,6.3559216E2,1.9974401E3,3.0938072E1,6.977924E1,1.4653157E2,6.674642E2,5.743265E2,6.126566E1,6.745843E2,1.3228557E3,1.032095E1,2.0617123E1,6.537731E1,4.4019284E0,4.858037E1,9.79512E1,2.611051E2,4.063591E2,1.6999586E2,4.0433063E2,4.030286E1,2.09628E1,2.8217303E2,3.9241122E2,1.2910854E3,3.1770351E1],"tree_param":{"num_deleted":"0","num_feature":"10","num_nodes":"37","size_leaf_vector":"1"}},{"base_weights":[5.668073E-4,1.7870315E0,-8.407777E-1,1.8129675E-1,1.6076939E0,-3.59538E-2,-1.1806191E0,1.19786E0,1.6477997E0,1.2171234E0,-1.9725975E-1,-5.469504E-1,-1.3795606E0,7.775367E-1,1.3858014E-1,1.7048842E0,1.4154047E0,1.5839617E-1,9.737026E-1,7.2007096E-1,-3.7212285E-1,-7.6736975E-1,-7.424521E-4,-1.0963678E0,-1.5057555E0,1.2277824E-1,2.9822392E-2,1.7108072E-1,5.1993784E-2,1.4500801E-1,2.3016365E-2,2.7738988E-2,1.0513474E-1,8.098922E-3,1.0231618E-1,-1.3476062E-2,-6.0226765E-2,-1.2301798E-1,-4.828879E-2,-1.529596E-2,8.766058E-2,-1.1779878E-1,-5.701984E-2,-1.18698634E-1,-1.5709041E-1],"categories":[],"categories_nodes":[],"categories_segments":[],"categories_sizes":[],"default_left":[0,0,0,0,0,0,0,0,0,0,0,0,0,0,0,0,0,0,0,0,0,0,0,0,0,0,0,0,0,0,0,0,0,0,0,0,0,0,0,0,0,0,0,0,0],"id":1,"left_children":[1,3,5,-1,7,9,11,13,15,17,19,21,23,25,-1,27,29,-1,31,33,35,37,39,41,43,-1,-1,-1,-1,-1,-1,-1,-1,-1,-1,-1,-1,-1,-1,-1,-1,-1,-1,-1,-1],"loss_changes":[7.847095E3,4.8603516E0,9.707324E2,0E0,1.6427612E0,2.134426E2,3.1383618E2,7.61116E-1,2.1032715E-1,9.21199E0,1.5030505E2,7.1986496E1,6.619971E1,1.6774983E0,0E0,1.9042969E-1,1.5110092E0,0E0,3.7627487E0,2.899009E1,4.2870293E1,5.5494873E1,2.3226492E1,2.4620056E1,2.5354248E1,0E0,0E0,0E0,0E0,0E0,0E0,0E0,0E0,0E0,0E0,0E0,0E0,0E0,0E0,0E0,0E0,0E0,0E0,0E0,0E0],"parents":[2147483647,0,0,1,1,2,2,4,4,5,5,6,6,7,7,8,8,9,9,10,10,11,11,12,12,13,13,15,15,16,16,18,18,19,19,20,20,21,21,22,22,23,23,24,24],"right_children":[2,4,6,-1,8,10,12,14,16,18,20,22,24,26,-1,28,30,-1,32,34,36,38,40,42,44,-1,-1,-1,-1,-1,-1,-1,-1,-1,-1,-1,-1,-1,-1,-1,-1,-1,-1,-1,-1],"split_conditions":[4E0,3E0,6.9666664E1,1.8129675E-1,4E1,5E0,7E0,2.5E1,8.075E1,5.48E1,5.0666668E1,7.5E1,7.8166664E1,6.838461E1,1.3858014E-1,1.95E2,4.1E1,1.5839617E-1,4E1,6E0,6.3166668E1,1.8E1,1E0,1E0,9E0,1.2277824E-1,2.9822392E-2,1.7108072E-1,5.1993784E-2,1.4500801E-1,2.3016365E-2,2.7738988E-2,1.0513474E-1,8.098922E-3,1.0231618E-1,-1.3476062E-2,-6.0226765E-2,-1.2301798E-1,-4.828879E-2,-1.529596E-2,8.766058E-2,-1.1779878E-1,-5.701984E-2,-1.18698634E-1,-1.5709041E-1],"split_indices":[3,3,0,0,5,3,3,2,0,0,0,5,0,0,0,5,2,0,5,3,0,2,6,6,3,0,0,0,0,0,0,0,0,0,0,0,0,0,0,0,0,0,0,0,0],"split_type":[0,0,0,0,0,0,0,0,0,0,0,0,0,0,0,0,0,0,0,0,0,0,0,0,0,0,0,0,0,0,0,0,0,0,0,0,0,0,0,0,0,0,0,0,0],"sum_hessian":[5.2188433E3,1.6705548E3,3.5482886E3,1.4515248E3,2.1903006E2,1.0537853E3,2.4945034E3,2.227487E1,1.9675519E2,1.1943441E2,9.343508E2,5.9692523E2,1.8975781E3,8.4697485E0,1.3805121E1,1.5286902E2,4.3886177E1,4.5443455E1,7.399095E1,1.4909283E2,7.85258E2,4.2500986E2,1.7191536E2,5.879205E2,1.3096576E3,3.5621092E0,4.9076395E0,1.5166711E2,1.2019005E0,4.2421642E1,1.4645337E0,7.8816247E0,6.610933E1,4.8369846E1,1.00722984E2,3.8734808E2,3.979099E2,1.6052884E2,2.6448102E2,1.4720195E2,2.4713415E1,5.0789627E2,8.0024216E1,2.2550255E2,1.084155E3],"tree_param":{"num_deleted":"0","num_feature":"10","num_nodes":"45","size_leaf_vector":"1"}},{"base_weights":[6.671578E-3,1.6483039E0,-7.565364E-1,1.6747002E-1,1.474023E-1,-8.8098705E-2,-1.0979183E0,1.0787348E0,-2.2409199E-1,-4.868887E-1,-1.2870959E0,1.2679003E-1,1.1923962E0,7.398455E-1,-3.6616898E-1,4.278236E-1,-6.163517E-1,-1.0289752E0,-1.3840674E0,9.041061E-2,-5.3365696E-2,1.4875758E-1,1.02158524E-1,1.2339315E-2,1.05271555E-1,-4.6531428E-2,1.6071888E-2,5.2220937E-2,-1.3932E-1,-8.414098E-2,-3.3336417E-3,-1.1076567E-1,-5.1773023E-2,-1.105348E-1,-1.4418791E-1],"categories":[],"categories_nodes":[],"categories_segments":[],"categories_sizes":[],"default_left":[0,0,0,0,0,0,0,0,0,0,0,0,0,0,0,0,0,0,0,0,0,0,0,0,0,0,0,0,0,0,0,0,0,0,0],"id":2,"left_children":[1,3,5,-1,-1,7,9,11,13,15,17,19,21,23,25,27,29,31,33,-1,-1,-1,-1,-1,-1,-1,-1,-1,-1,-1,-1,-1,-1,-1,-1],"loss_changes":[6.396191E3,4.9848633E0,7.951365E2,0E0,0E0,1.873602E2,2.6601367E2,1.3185623E1,1.450232E2,6.503317E1,4.2648438E1,7.8065634E0,4.0262604E0,2.612056E1,4.823034E1,1.2484589E1,6.2893158E1,1.8925537E1,1.8983398E1,0E0,0E0,0E0,0E0,0E0,0E0,0E0,0E0,0E0,0E0,0E0,0E0,0E0,0E0,0E0,0E0],"parents":[2147483647,0,0,1,1,2,2,5,5,6,6,7,7,8,8,9,9,10,10,11,11,12,12,13,13,14,14,15,15,16,16,17,17,18,18],"right_children":[2,4,6,-1,-1,8,10,12,14,16,18,20,22,24,26,28,30,32,34,-1,-1,-1,-1,-1,-1,-1,-1,-1,-1,-1,-1,-1,-1,-1,-1],"split_conditions":[4E0,3E0,7.130769E1,1.6747002E-1,1.474023E-1,5E0,7E0,4E1,5E1,8.257744E1,7.8166664E1,6.375E1,5.48E1,7.728437E1,1E0,8E1,7.5E1,1E0,9E0,9.041061E-2,-5.3365696E-2,1.4875758E-1,1.02158524E-1,1.2339315E-2,1.05271555E-1,-4.6531428E-2,1.6071888E-2,5.2220937E-2,-1.3932E-1,-8.414098E-2,-3.3336417E-3,-1.1076567E-1,-5.1773023E-2,-1.105348E-1,-1.4418791E-1],"split_indices":[3,3,0,0,0,3,3,5,0,1,0,0,0,1,9,2,5,9,3,0,0,0,0,0,0,0,0,0,0,0,0,0,0,0,0],"split_type":[0,0,0,0,0,0,0,0,0,0,0,0,0,0,0,0,0,0,0,0,0,0,0,0,0,0,0,0,0,0,0,0,0,0,0],"sum_hessian":[5.1030854E3,1.619164E3,3.4839216E3,1.3987075E3,2.2045645E2,1.1782076E3,2.305714E3,1.2226152E2,1.055946E3,5.459406E2,1.7597734E3,1.3266503E1,1.0899502E2,1.3510481E2,9.2084125E2,6.7403206E1,4.7853745E2,4.8374414E2,1.2760293E3,5.9245944E0,7.341909E0,3.7126892E1,7.1868126E1,4.595446E1,8.915035E1,7.7510535E2,1.4573589E2,6.4759865E1,2.6433442E0,3.449393E2,1.3359813E2,4.1821378E2,6.553035E1,2.2266144E2,1.0533678E3],"tree_param":{"num_deleted":"0","num_feature":"10","num_nodes":"35","size_leaf_vector":"1"}},{"base_weights":[3.2743216E-3,1.5458744E0,-6.992174E-1,1.5722547E-1,1.3655969E0,-1.4491628E-1,-1.0536598E0,1.4256455E-1,1.1918665E0,4.4090882E-1,-3.682966E-1,-5.1947415E-1,-1.2163223E0,1.2183416E0,-5.613336E-3,1.3477063E0,2.8342018E-1,6.6495144E-1,-4.6894836E-1,5.2045065E-1,-6.433402E-1,-8.2365143E-1,-1.2674608E0,1.351263E-1,9.496659E-2,8.94313E-2,1.5135866E-1,1.1847154E-1,1.5450748E-2,5.2002937E-2,1.4077033E-1,-5.427615E-2,-2.5014777E-3,1.1786532E-1,2.8144492E-2,-7.46665E-2,4.694535E-2,-3.827706E-2,-9.4120935E-2,-1.3048157E-1,-8.988983E-2],"categories":[],"categories_nodes":[],"categories_segments":[],"categories_sizes":[],"default_left":[0,0,0,0,0,0,0,0,0,0,0,0,0,0,0,0,0,0,0,0,0,0,0,0,0,0,0,0,0,0,0,0,0,0,0,0,0,0,0,0,0],"id":3,"left_children":[1,3,5,-1,7,9,11,-1,13,15,17,19,21,23,-1,25,27,29,31,33,35,37,39,-1,-1,-1,-1,-1,-1,-1,-1,-1,-1,-1,-1,-1,-1,-1,-1,-1,-1],"loss_changes":[5.432373E3,5.3125E0,6.7656287E2,0E0,4.6902466E-1,1.7611938E2,1.8191113E2,0E0,2.0337753E0,5.269079E1,1.016031E2,6.3726532E1,3.1279541E1,7.985153E-1,0E0,2.762268E0,3.6753822E1,8.618641E0,2.908783E1,7.9951677E0,5.096402E1,9.400848E0,1.8409424E1,0E0,0E0,0E0,0E0,0E0,0E0,0E0,0E0,0E0,0E0,0E0,0E0,0E0,0E0,0E0,0E0,0E0,0E0],"parents":[2147483647,0,0,1,1,2,2,4,4,5,5,6,6,8,8,9,9,10,10,11,11,12,12,13,13,15,15,16,16,17,17,18,18,19,19,20,20,21,21,22,22],"right_children":[2,4,6,-1,8,10,12,-1,14,16,18,20,22,24,-1,26,28,30,32,34,36,38,40,-1,-1,-1,-1,-1,-1,-1,-1,-1,-1,-1,-1,-1,-1,-1,-1,-1,-1],"split_conditions":[4E0,3E0,7.330769E1,1.5722547E-1,7.9181816E1,5.76E1,7E0,1.4256455E-1,4.3E1,4.22E1,5E0,8.257744E1,8.245263E1,9.354871E1,-5.613336E-3,7.915063E1,5E0,1E0,1E0,4.2E1,1E0,9E0,1E0,1.351263E-1,9.496659E-2,8.94313E-2,1.5135866E-1,1.1847154E-1,1.5450748E-2,5.2002937E-2,1.4077033E-1,-5.427615E-2,-2.5014777E-3,1.1786532E-1,2.8144492E-2,-7.46665E-2,4.694535E-2,-3.827706E-2,-9.4120935E-2,-1.3048157E-1,-8.988983E-2],"split_indices":[3,3,0,0,0,0,3,0,2,0,3,1,1,1,0,1,3,6,6,2,6,3,6,0,0,0,0,0,0,0,0,0,0,0,0,0,0,0,0,0,0],"split_type":[0,0,0,0,0,0,0,0,0,0,0,0,0,0,0,0,0,0,0,0,0,0,0,0,0,0,0,0,0,0,0,0,0,0,0,0,0,0,0,0,0],"sum_hessian":[5.0109717E3,1.567563E3,3.4434087E3,1.3607247E3,2.0683826E2,1.3436019E3,2.099807E3,1.4835449E2,5.848377E1,3.7063107E2,9.729708E2,4.911284E2,1.6086785E3,5.729214E1,1.1916288E0,5.372612E1,3.1690494E2,8.586908E1,8.8710175E2,5.193162E1,4.3919678E2,1.8733324E2,1.4213452E3,3.5633778E1,2.1658365E1,1.6103216E1,3.7622906E1,3.8630333E1,2.7827463E2,7.327262E1,1.2596458E1,7.6044025E2,1.26661514E2,1.2786672E1,3.9144947E1,4.0218243E2,3.701432E1,4.033178E1,1.4700146E2,1.2882385E3,1.3310661E2],"tree_param":{"num_deleted":"0","num_feature":"10","num_nodes":"41","size_leaf_vector":"1"}},{"base_weights":[-1.1244881E-2,1.4578093E0,-6.487959E-1,1.4853176E-1,1.2805514E0,-4.6843465E-2,-9.2229617E-1,9.6964395E-1,1.3127497E-1,4.0674895E-1,-2.8317103E-1,-5.44614E-1,-1.1601313E0,1.1175911E0,6.127089E-1,1.1914489E0,2.7749547E-1,6.0897225E-1,-3.7000304E-1,-6.4338857E-1,4.139157E-1,-9.329991E-1,-1.2572049E0,3.275176E-2,1.1572703E-1,1.2087145E-1,5.6405542E-3,6.978375E-2,1.3908741E-1,1.0519822E-1,1.6728876E-2,6.63065E-2,-5.6558188E-2,-1.0334283E-1,-3.1653084E-2,-4.133262E-3,-7.548598E-2,1.0174864E-1,2.3248676E-2,-1.2898965E-1,-8.184268E-2,-9.9268496E-2,-1.3009034E-1],"categories":[],"categories_nodes":[],"categories_segments":[],"categories_sizes":[],"default_left":[0,0,0,0,0,0,0,0,0,0,0,0,0,0,0,0,0,0,0,0,0,0,0,0,0,0,0,0,0,0,0,0,0,0,0,0,0,0,0,0,0,0,0],"id":4,"left_children":[1,3,5,-1,7,9,11,13,-1,15,17,19,21,23,25,27,29,31,33,35,37,39,41,-1,-1,-1,-1,-1,-1,-1,-1,-1,-1,-1,-1,-1,-1,-1,-1,-1,-1,-1,-1],"loss_changes":[4.5750435E3,5.3063965E0,5.6076636E2,0E0,7.878418E-1,1.1430581E2,2.0975476E2,5.37426E-1,0E0,3.6720394E1,5.4525013E1,8.612912E1,3.0494507E1,9.587288E-2,2.9143882E0,4.0850525E0,2.6705732E1,4.349083E0,2.235527E1,5.5172302E1,9.107654E0,1.6687653E1,1.03063965E1,0E0,0E0,0E0,0E0,0E0,0E0,0E0,0E0,0E0,0E0,0E0,0E0,0E0,0E0,0E0,0E0,0E0,0E0,0E0,0E0],"parents":[2147483647,0,0,1,1,2,2,4,4,5,5,6,6,7,7,9,9,10,10,11,11,12,12,13,13,14,14,15,15,16,16,17,17,18,18,19,19,20,20,21,21,22,22],"right_children":[2,4,6,-1,8,10,12,14,-1,16,18,20,22,24,26,28,30,32,34,36,38,40,42,-1,-1,-1,-1,-1,-1,-1,-1,-1,-1,-1,-1,-1,-1,-1,-1,-1,-1,-1,-1],"split_conditions":[1.4285715E-1,1.0714286E-1,7.0125E1,1.4853176E-1,4E1,5.76E1,3.2142857E-1,8.864585E1,1.3127497E-1,4.22E1,1.7857143E-1,1E0,8.596174E1,6.9235146E1,6.838461E1,7.915063E1,1.7857143E-1,6.9666664E1,6.7870575E1,8.257744E1,8.312282E1,5E1,7.6666664E1,3.275176E-2,1.1572703E-1,1.2087145E-1,5.6405542E-3,6.978375E-2,1.3908741E-1,1.0519822E-1,1.6728876E-2,6.63065E-2,-5.6558188E-2,-1.0334283E-1,-3.1653084E-2,-4.133262E-3,-7.548598E-2,1.0174864E-1,2.3248676E-2,-1.2898965E-1,-8.184268E-2,-9.9268496E-2,-1.3009034E-1],"split_indices":[4,4,0,0,5,0,4,1,0,0,4,6,1,1,0,1,4,0,1,1,1,5,0,0,0,0,0,0,0,0,0,0,0,0,0,0,0,0,0,0,0,0,0],"split_type":[0,0,0,0,0,0,0,0,0,0,0,0,0,0,0,0,0,0,0,0,0,0,0,0,0,0,0,0,0,0,0,0,0,0,0,0,0,0,0,0,0,0,0],"sum_hessian":[4.882741E3,1.4773419E3,3.4053992E3,1.2724878E3,2.0485416E2,1.064247E3,2.341152E3,2.214411E1,1.8271005E2,3.643038E2,6.999432E2,9.058895E2,1.4352626E3,1.4148552E1,7.9955573E0,5.0358517E1,3.1394528E2,6.1549393E1,6.3839374E2,8.2155835E2,8.4331184E1,4.329229E2,1.00233966E3,1.1191283E0,1.3029424E1,3.29386E0,4.7016973E0,1.578562E1,3.4572895E1,3.80438E1,2.759015E2,5.9255905E1,2.293487E0,4.624982E1,5.921439E2,1.2856264E2,6.929957E2,1.8425566E1,6.590562E1,1.0271207E2,3.3021085E2,1.4547154E2,8.568681E2],"tree_param":{"num_deleted":"0","num_feature":"10","num_nodes":"43","size_leaf_vector":"1"}},{"base_weights":[-5.083585E-3,1.3881922E0,-5.902418E-1,1.4167583E-1,1.2054864E0,1.0015438E-1,-8.0454075E-1,8.988592E-1,1.2375509E0,9.6813E-1,1.92262E-4,-3.025935E-1,-9.77349E-1,2.4385326E-1,9.696181E-1,1.295593E-1,1.0811858E0,1.2670657E-1,6.995192E-1,9.5468503E-1,-8.483283E-2,-4.2413956E-1,3.9124689E-1,-7.221783E-1,-1.1338062E0,-4.0074848E-4,4.0080767E-2,7.301271E-2,1.2239148E-1,1.105796E-1,2.3196427E-2,2.4327759E-2,9.370204E-2,5.5653494E-2,1.1831697E-1,-5.1637363E-2,7.112987E-3,-9.279704E-3,-7.3696874E-2,2.8647432E-2,7.1062006E-2,-5.360452E-2,-8.583507E-2,-1.1598196E-1,-5.3473145E-2],"categories":[],"categories_nodes":[],"categories_segments":[],"categories_sizes":[],"default_left":[0,0,0,0,0,0,0,0,0,0,0,0,0,0,0,0,0,0,0,0,0,0,0,0,0,0,0,0,0,0,0,0,0,0,0,0,0,0,0,0,0,0,0,0,0],"id":5,"left_children":[1,3,5,-1,7,9,11,13,15,17,19,21,23,25,27,-1,29,-1,31,33,35,37,39,41,43,-1,-1,-1,-1,-1,-1,-1,-1,-1,-1,-1,-1,-1,-1,-1,-1,-1,-1,-1,-1],"loss_changes":[3.8839634E3,5.6464844E0,4.9644177E2,0E0,8.2666016E-1,6.9027916E1,2.2178809E2,7.9826355E-1,1.9558716E-1,5.7110443E0,5.8060078E1,5.558654E1,7.520166E1,1.3825557E-1,3.129959E-1,0E0,8.6494064E-1,0E0,4.703245E0,4.664768E0,4.4248966E1,5.794439E1,3.0917187E0,1.7954254E1,1.774768E1,0E0,0E0,0E0,0E0,0E0,0E0,0E0,0E0,0E0,0E0,0E0,0E0,0E0,0E0,0E0,0E0,0E0,0E0,0E0,0E0],"parents":[2147483647,0,0,1,1,2,2,4,4,5,5,6,6,7,7,8,8,9,9,10,10,11,11,12,12,13,13,14,14,16,16,18,18,19,19,20,20,21,21,22,22,23,23,24,24],"right_children":[2,4,6,-1,8,10,12,14,16,18,20,22,24,26,28,-1,30,-1,32,34,36,38,40,42,44,-1,-1,-1,-1,-1,-1,-1,-1,-1,-1,-1,-1,-1,-1,-1,-1,-1,-1,-1,-1],"split_conditions":[4E0,3E0,6.6333336E1,1.4167583E-1,4E1,5E0,7E0,1.3E1,7.8166664E1,5.48E1,4.42E1,6E0,7.8166664E1,8.34E1,7.25E1,1.295593E-1,4.3E1,1.2670657E-1,3E1,6E0,6E0,5E0,4.5E1,1.1E1,1.35E2,-4.0074848E-4,4.0080767E-2,7.301271E-2,1.2239148E-1,1.105796E-1,2.3196427E-2,2.4327759E-2,9.370204E-2,5.5653494E-2,1.1831697E-1,-5.1637363E-2,7.112987E-3,-9.279704E-3,-7.3696874E-2,2.8647432E-2,7.1062006E-2,-5.360452E-2,-8.583507E-2,-1.1598196E-1,-5.3473145E-2],"split_indices":[3,3,0,0,5,3,3,2,0,0,0,3,0,0,0,0,2,0,2,3,3,3,2,3,5,0,0,0,0,0,0,0,0,0,0,0,0,0,0,0,0,0,0,0,0],"split_type":[0,0,0,0,0,0,0,0,0,0,0,0,0,0,0,0,0,0,0,0,0,0,0,0,0,0,0,0,0,0,0,0,0,0,0,0,0,0,0,0,0,0,0,0,0],"sum_hessian":[4.761918E3,1.4080189E3,3.3538992E3,1.2117996E3,1.9621925E2,7.945785E2,2.5593208E3,2.1324976E1,1.7489427E2,8.116181E1,7.134167E2,6.5615936E2,1.9031614E3,2.5125816E0,1.8812393E1,1.22235344E2,5.265893E1,3.665335E1,4.450846E1,5.7515762E1,6.5590094E2,5.586793E2,9.748003E1,7.255144E2,1.177647E3,1.351994E0,1.1605875E0,1.16818495E1,7.1305437E0,5.088225E1,1.7766806E0,1.5930386E1,2.8578075E1,2.2224253E1,3.529151E1,1.7350648E2,4.8239444E2,2.719412E2,2.8673813E2,7.482889E1,2.265114E1,3.086118E2,4.1690262E2,1.1277415E3,4.990556E1],"tree_param":{"num_deleted":"0","num_feature":"10","num_nodes":"45","size_leaf_vector":"1"}},{"base_weights":[9.882572E-3,1.3324441E0,-5.3643E-1,1.3591401E-1,1.1600413E0,3.3785736E-3,-7.767062E-1,1.3471822E-1,1.1044596E0,4.1227192E-1,-2.1943355E-1,-4.2325288E-1,-1.006701E0,3.6198026E-1,1.1140505E0,1.0043344E0,2.6878673E-1,6.867557E-1,-3.0544624E-1,-5.18442E-1,4.0205893E-1,-7.728181E-1,-1.118293E0,-3.4127023E-2,8.0978446E-2,8.2630605E-2,1.1491912E-1,1.2263073E-1,6.458943E-2,9.7359404E-2,1.7585417E-2,-2.040411E-2,7.90182E-2,-3.6803897E-2,4.92344E-3,-6.579886E-2,-1.2364606E-2,6.355573E-2,-2.1696443E-4,-8.212861E-2,-3.5077408E-2,-1.1399855E-1,-6.394394E-2],"categories":[],"categories_nodes":[],"categories_segments":[],"categories_sizes":[],"default_left":[0,0,0,0,0,0,0,0,0,0,0,0,0,0,0,0,0,0,0,0,0,0,0,0,0,0,0,0,0,0,0,0,0,0,0,0,0,0,0,0,0,0,0],"id":6,"left_children":[1,3,5,-1,7,9,11,-1,13,15,17,19,21,23,25,27,29,31,33,35,37,39,41,-1,-1,-1,-1,-1,-1,-1,-1,-1,-1,-1,-1,-1,-1,-1,-1,-1,-1,-1,-1],"loss_changes":[3.2972478E3,4.5629883E0,4.1887585E2,0E0,4.4360352E-1,9.0806564E1,1.8124292E2,0E0,6.558075E-1,2.9595123E1,5.0496315E1,6.9551285E1,3.4450806E1,1.3401163E0,5.3015137E-1,4.635208E0,1.8452858E1,5.3423786E0,1.3114773E1,4.354225E1,8.669833E0,8.718536E0,8.763062E0,0E0,0E0,0E0,0E0,0E0,0E0,0E0,0E0,0E0,0E0,0E0,0E0,0E0,0E0,0E0,0E0,0E0,0E0,0E0,0E0],"parents":[2147483647,0,0,1,1,2,2,4,4,5,5,6,6,8,8,9,9,10,10,11,11,12,12,13,13,14,14,15,15,16,16,17,17,18,18,19,19,20,20,21,21,22,22],"right_children":[2,4,6,-1,8,10,12,-1,14,16,18,20,22,24,26,28,30,32,34,36,38,40,42,-1,-1,-1,-1,-1,-1,-1,-1,-1,-1,-1,-1,-1,-1,-1,-1,-1,-1,-1,-1],"split_conditions":[4E0,3E0,6.9666664E1,1.3591401E-1,5.48E1,5.76E1,9E0,1.3471822E-1,5.6117645E1,4.42E1,5E0,1E0,7.8333336E1,2.5E1,4E1,5.4E1,5E0,4E1,1E0,7.5E1,7E0,1.5E1,1.35E2,-3.4127023E-2,8.0978446E-2,8.2630605E-2,1.1491912E-1,1.2263073E-1,6.458943E-2,9.7359404E-2,1.7585417E-2,-2.040411E-2,7.90182E-2,-3.6803897E-2,4.92344E-3,-6.579886E-2,-1.2364606E-2,6.355573E-2,-2.1696443E-4,-8.212861E-2,-3.5077408E-2,-1.1399855E-1,-6.394394E-2],"split_indices":[3,3,0,0,0,0,3,0,0,0,3,6,0,2,5,2,3,5,6,5,3,3,5,0,0,0,0,0,0,0,0,0,0,0,0,0,0,0,0,0,0,0,0],"split_type":[0,0,0,0,0,0,0,0,0,0,0,0,0,0,0,0,0,0,0,0,0,0,0,0,0,0,0,0,0,0,0,0,0,0,0,0,0,0,0,0,0,0,0],"sum_hessian":[4.561473E3,1.3329973E3,3.2284758E3,1.1483035E3,1.8469383E2,9.94716E2,2.23376E3,3.6972206E1,1.4772162E2,3.5055154E2,6.441645E2,8.8166583E2,1.352094E3,2.3778925E0,1.4534372E2,6.721264E1,2.833389E2,5.5236305E1,5.8892816E2,7.9082605E2,9.08398E1,4.3930087E2,9.1279315E2,1.0176443E0,1.3602482E0,1.8486202E1,1.2685753E2,4.0012608E1,2.720003E1,3.190357E1,2.5143535E2,5.644877E0,4.9591427E1,5.005545E2,8.8373665E1,5.838048E2,2.0702124E2,5.721683E1,3.3622967E1,3.9319943E2,4.610144E1,8.7191425E2,4.0878925E1],"tree_param":{"num_deleted":"0","num_feature":"10","num_nodes":"43","size_leaf_vector":"1"}},{"base_weights":[9.72973E-3,1.2826738E0,-4.8668864E-1,1.3144298E-1,1.0827584E0,-8.6674854E-2,-7.541909E-1,1.2647821E-1,1.0281675E0,7.239134E-1,-1.715471E-1,-2.8218982E-1,-9.1450423E-1,2.4309553E-1,1.0432158E0,-2.0333269E-1,8.498897E-1,1.7713374E-1,-3.7135294E-1,5.630711E-2,-6.605028E-1,-1.0121135E0,-7.104707E-1,7.796474E-2,-3.175517E-2,2.565354E-2,1.0480129E-1,9.9952005E-2,-7.635435E-2,1.1754451E-1,7.1428776E-2,-3.5017442E-2,3.789687E-2,-1.9986153E-2,-6.1663102E-2,4.4694703E-2,-1.7574491E-2,-8.551933E-2,-8.608512E-3,-9.053962E-2,-1.22456685E-1,-3.3010133E-2,-8.733007E-2],"categories":[],"categories_nodes":[],"categories_segments":[],"categories_sizes":[],"default_left":[0,0,0,0,0,0,0,0,0,0,0,0,0,0,0,0,0,0,0,0,0,0,0,0,0,0,0,0,0,0,0,0,0,0,0,0,0,0,0,0,0,0,0],"id":7,"left_children":[1,3,5,-1,7,9,11,-1,13,15,17,19,21,23,25,27,29,31,33,35,37,39,41,-1,-1,-1,-1,-1,-1,-1,-1,-1,-1,-1,-1,-1,-1,-1,-1,-1,-1,-1,-1],"loss_changes":[2.8086208E3,6.493408E0,3.4209735E2,0E0,4.5448303E-1,8.836E1,1.4472815E2,0E0,1.4145813E0,1.4394989E1,8.100728E1,6.2431885E1,2.775708E1,1.4386656E0,2.528534E-1,1.1120228E1,3.9009552E0,4.5248875E1,3.095726E1,2.3472544E1,2.5666649E1,2.0765747E1,2.8576263E1,0E0,0E0,0E0,0E0,0E0,0E0,0E0,0E0,0E0,0E0,0E0,0E0,0E0,0E0,0E0,0E0,0E0,0E0,0E0,0E0],"parents":[2147483647,0,0,1,1,2,2,4,4,5,5,6,6,8,8,9,9,10,10,11,11,12,12,13,13,14,14,15,15,16,16,17,17,18,18,19,19,20,20,21,21,22,22],"right_children":[2,4,6,-1,8,10,12,-1,14,16,18,20,22,24,26,28,30,32,34,36,38,40,42,-1,-1,-1,-1,-1,-1,-1,-1,-1,-1,-1,-1,-1,-1,-1,-1,-1,-1,-1,-1],"split_conditions":[4E0,3E0,7.314286E1,1.3144298E-1,5.48E1,5E0,7E0,1.2647821E-1,5.6117645E1,4E1,6.0583332E1,9.124405E1,9E1,8.677881E1,5.927777E1,6.0583332E1,5.48E1,6E0,1.1E1,5E0,7.5E1,8.6454544E1,1.1E1,7.796474E-2,-3.175517E-2,2.565354E-2,1.0480129E-1,9.9952005E-2,-7.635435E-2,1.1754451E-1,7.1428776E-2,-3.5017442E-2,3.789687E-2,-1.9986153E-2,-6.1663102E-2,4.4694703E-2,-1.7574491E-2,-8.551933E-2,-8.608512E-3,-9.053962E-2,-1.22456685E-1,-3.3010133E-2,-8.733007E-2],"split_indices":[3,3,0,0,0,3,3,0,0,5,0,1,5,1,1,0,0,3,3,3,5,0,3,0,0,0,0,0,0,0,0,0,0,0,0,0,0,0,0,0,0,0,0],"split_type":[0,0,0,0,0,0,0,0,0,0,0,0,0,0,0,0,0,0,0,0,0,0,0,0,0,0,0,0,0,0,0,0,0,0,0,0,0,0,0,0,0,0,0],"sum_hessian":[4.442645E3,1.2459993E3,3.1966458E3,1.0703955E3,1.756037E2,1.2815635E3,1.9150823E3,3.540012E1,1.4020358E2,1.2075367E2,1.1608098E3,4.8623865E2,1.4288436E3,2.959517E0,1.3724406E2,1.436994E1,1.0638373E2,4.229077E2,7.3790216E2,2.570729E2,2.2916576E2,9.6380237E2,4.650413E2,1.312656E0,1.6468611E0,1.1620052E0,1.3608206E2,4.316853E0,1.0053086E1,2.9026966E1,7.735676E1,1.1686215E2,3.0604556E2,4.3533984E2,3.025623E2,9.545553E1,1.6161737E2,1.7079015E2,5.8375614E1,6.450497E2,3.1875266E2,1.4030878E2,3.247325E2],"tree_param":{"num_deleted":"0","num_feature":"10","num_nodes":"43","size_leaf_vector":"1"}},{"base_weights":[7.7628386E-3,1.2401222E0,-4.5731223E-1,1.2742406E-1,1.0233402E0,-6.463317E-2,-7.256315E-1,1.2150898E-1,9.6718043E-1,2.6037917E-1,-2.61496E-1,-2.7883378E-1,-8.835471E-1,1.0848147E-1,9.8324364E-1,1.0538124E0,1.7363757E-1,4.96194E-1,-3.3580178E-1,-1.2039025E-1,-7.38092E-1,-9.1564417E-1,-3.0122903E-1,-4.3505706E-2,7.0007265E-2,9.881434E-2,2.2605583E-2,1.2574373E-1,8.5349254E-2,8.466295E-2,1.0373211E-2,3.634322E-2,1.2841068E-1,-4.074094E-2,6.366629E-3,1.6631134E-2,-3.2380264E-2,-8.5839055E-2,1.7255729E-2,-8.346147E-2,-1.1006351E-1,-5.0947186E-2,-6.19059E-3],"categories":[],"categories_nodes":[],"categories_segments":[],"categories_sizes":[],"default_left":[0,0,0,0,0,0,0,0,0,0,0,0,0,0,0,0,0,0,0,0,0,0,0,0,0,0,0,0,0,0,0,0,0,0,0,0,0,0,0,0,0,0,0],"id":8,"left_children":[1,3,5,-1,7,9,11,-1,13,15,17,19,21,23,25,27,29,31,33,35,37,39,41,-1,-1,-1,-1,-1,-1,-1,-1,-1,-1,-1,-1,-1,-1,-1,-1,-1,-1,-1,-1],"loss_changes":[2.4551348E3,7.376587E0,3.2763354E2,0E0,5.9814453E-1,8.091315E1,1.3010376E2,0E0,1.7178421E0,3.2655346E1,4.4498123E1,3.5123543E1,2.5228638E1,1.447034E0,2.5790405E-1,8.3678055E-1,2.0203625E1,6.93169E0,2.0555092E1,2.1105682E1,1.37246475E1,1.8459839E1,3.5953426E0,0E0,0E0,0E0,0E0,0E0,0E0,0E0,0E0,0E0,0E0,0E0,0E0,0E0,0E0,0E0,0E0,0E0,0E0,0E0,0E0],"parents":[2147483647,0,0,1,1,2,2,4,4,5,5,6,6,8,8,9,9,10,10,11,11,12,12,13,13,14,14,15,15,16,16,17,17,18,18,19,19,20,20,21,21,22,22],"right_children":[2,4,6,-1,8,10,12,-1,14,16,18,20,22,24,26,28,30,32,34,36,38,40,42,-1,-1,-1,-1,-1,-1,-1,-1,-1,-1,-1,-1,-1,-1,-1,-1,-1,-1,-1,-1],"split_conditions":[4E0,3E0,7.314286E1,1.2742406E-1,5.48E1,6.0583332E1,7E0,1.2150898E-1,5.6117645E1,4.22E1,5E0,8.7666664E1,6.1E1,2.5E1,7.3E1,3.6333332E1,5E0,1E0,1E0,5E0,6E0,8.7111115E1,7.2E1,-4.3505706E-2,7.0007265E-2,9.881434E-2,2.2605583E-2,1.2574373E-1,8.5349254E-2,8.466295E-2,1.0373211E-2,3.634322E-2,1.2841068E-1,-4.074094E-2,6.366629E-3,1.6631134E-2,-3.2380264E-2,-8.5839055E-2,1.7255729E-2,-8.346147E-2,-1.1006351E-1,-5.0947186E-2,-6.19059E-3],"split_indices":[3,3,0,0,0,0,3,0,0,0,3,0,2,2,2,0,3,6,6,3,3,0,2,0,0,0,0,0,0,0,0,0,0,0,0,0,0,0,0,0,0,0,0],"split_type":[0,0,0,0,0,0,0,0,0,0,0,0,0,0,0,0,0,0,0,0,0,0,0,0,0,0,0,0,0,0,0,0,0,0,0,0,0,0,0,0,0,0,0],"sum_hessian":[4.2816694E3,1.1726654E3,3.109004E3,1.0089871E3,1.6367831E2,1.2625427E3,1.8464613E3,3.2403774E1,1.3127454E2,4.761373E2,7.864054E2,4.829096E2,1.3635518E3,2.552957E0,1.2872159E2,4.58248E1,4.303125E2,6.972698E1,7.166784E2,3.5997934E2,1.22930275E2,1.2917773E3,7.1774414E1,1.4684147E0,1.0845425E0,1.2759093E2,1.1306567E0,2.0107948E1,2.5716848E1,3.944619E1,3.908663E2,6.092286E1,8.804126E0,6.0772015E2,1.0895824E2,1.4947821E2,2.1050113E2,1.0863656E2,1.4293714E1,9.0213617E2,3.8964114E2,3.7775726E1,3.3998688E1],"tree_param":{"num_deleted":"0","num_feature":"10","num_nodes":"43","size_leaf_vector":"1"}},{"base_weights":[8.866337E-3,1.2066612E0,-4.177471E-1,1.2396749E-1,1.0066725E0,-7.247612E-2,-6.679854E-1,1.06225245E-1,8.115448E-1,5.6592184E-1,-1.5316439E-1,-3.4802946E-1,-8.8537127E-1,-9.3512266E-4,8.4472877E-1,7.8841746E-1,2.53612E-1,5.6074125E-1,-2.2370061E-1,-4.246963E-1,3.455467E-1,-9.1959953E-1,-3.3608666E-1,9.8816134E-2,5.824523E-2,9.871974E-2,2.5392208E-2,-2.132639E-2,6.356218E-2,9.815975E-2,4.1697573E-2,-8.503649E-2,-1.825144E-2,1.3610584E-3,-5.3709056E-2,1.0613624E-1,1.8580075E-2,-7.824912E-2,-1.0187631E-1,-5.4857172E-2,-2.6745077E-3],"categories":[],"categories_nodes":[],"categories_segments":[],"categories_sizes":[],"default_left":[0,0,0,0,0,0,0,0,0,0,0,0,0,0,0,0,0,0,0,0,0,0,0,0,0,0,0,0,0,0,0,0,0,0,0,0,0,0,0,0,0],"id":9,"left_children":[1,3,5,-1,7,9,11,-1,13,15,17,19,21,-1,23,25,27,29,31,33,35,37,39,-1,-1,-1,-1,-1,-1,-1,-1,-1,-1,-1,-1,-1,-1,-1,-1,-1,-1],"loss_changes":[2.1133223E3,5.9230957E0,2.6343427E2,0E0,8.646393E-1,6.615378E1,1.22662476E2,0E0,1.0848179E0,9.815308E0,5.750363E1,3.8267517E1,1.9471252E1,0E0,8.542843E-1,8.641495E0,1.1092885E1,5.8071213E0,2.662785E1,3.1830986E1,8.025482E0,1.2660278E1,4.1454372E0,0E0,0E0,0E0,0E0,0E0,0E0,0E0,0E0,0E0,0E0,0E0,0E0,0E0,0E0,0E0,0E0,0E0,0E0],"parents":[2147483647,0,0,1,1,2,2,4,4,5,5,6,6,8,8,9,9,10,10,11,11,12,12,14,14,15,15,16,16,17,17,18,18,19,19,20,20,21,21,22,22],"right_children":[2,4,6,-1,8,10,12,-1,14,16,18,20,22,-1,24,26,28,30,32,34,36,38,40,-1,-1,-1,-1,-1,-1,-1,-1,-1,-1,-1,-1,-1,-1,-1,-1,-1,-1],"split_conditions":[4E0,3E0,7.330769E1,1.2396749E-1,8.04E1,5E1,9E0,1.06225245E-1,7.894056E1,5.9E1,5E0,1E0,6.1E1,-9.3512266E-4,9.354871E1,8.71408E1,6E0,7.7710815E1,6.858167E1,8.4672104E1,8.344215E1,8.22E1,1.3E1,9.8816134E-2,5.824523E-2,9.871974E-2,2.5392208E-2,-2.132639E-2,6.356218E-2,9.815975E-2,4.1697573E-2,-8.503649E-2,-1.825144E-2,1.3610584E-3,-5.3709056E-2,1.0613624E-1,1.8580075E-2,-7.824912E-2,-1.0187631E-1,-5.4857172E-2,-2.6745077E-3],"split_indices":[3,3,0,0,0,0,3,0,1,2,3,6,2,0,1,1,3,1,1,1,1,0,3,0,0,0,0,0,0,0,0,0,0,0,0,0,0,0,0,0,0],"split_type":[0,0,0,0,0,0,0,0,0,0,0,0,0,0,0,0,0,0,0,0,0,0,0,0,0,0,0,0,0,0,0,0,0,0,0,0,0,0,0,0,0],"sum_hessian":[4.1337104E3,1.0851437E3,3.048567E3,9.269291E2,1.5821463E2,1.2815767E3,1.7669901E3,1.1968103E2,3.8533596E1,1.4313022E2,1.1384464E3,7.159022E2,1.0510879E3,1.5250697E0,3.7008526E1,8.2693375E1,6.0436844E1,1.0174304E2,1.0367034E3,6.449933E2,7.090888E1,9.8879755E2,6.229042E1,2.213552E1,1.4873006E1,5.9659077E1,2.3034302E1,2.739616E1,3.304068E1,2.4422201E1,7.732084E1,6.2721706E1,9.739817E2,1.31818E2,5.131753E2,1.1907544E1,5.9001335E1,4.187305E2,5.70067E2,3.646764E1,2.5822779E1],"tree_param":{"num_deleted":"0","num_feature":"10","num_nodes":"41","size_leaf_vector":"1"}},{"base_weights":[5.583913E-3,1.1685011E0,-3.8740373E-1,1.20987944E-1,9.2729855E-1,1.1691086E-1,-5.4009354E-1,1.0344197E0,6.3820106E-1,8.836942E-1,6.252702E-2,-2.5987756E-1,-7.5726765E-1,1.18405834E-1,9.2368937E-1,-6.573392E-2,7.0849854E-1,4.847395E-1,1.0575052E0,-4.949372E-1,1.3371018E-1,-4.054068E-1,1.0554679E-1,-5.386673E-1,-9.114779E-1,-1.1698472E-2,9.4840854E-2,9.100886E-2,3.5555087E-2,1.2261217E-1,6.559793E-3,1.136682E-1,1.26975775E-2,-8.08168E-2,4.3435913E-2,-7.6599483E-4,3.671673E-2,4.156759E-2,-4.890244E-2,5.2185863E-4,1.114489E-1,-4.641398E-3,-5.908222E-2,-9.50566E-2,-5.210809E-2],"categories":[],"categories_nodes":[],"categories_segments":[],"categories_sizes":[],"default_left":[0,0,0,0,0,0,0,0,0,0,0,0,0,0,0,0,0,0,0,0,0,0,0,0,0,0,0,0,0,0,0,0,0,0,0,0,0,0,0,0,0,0,0,0,0],"id":10,"left_children":[1,3,5,-1,7,9,11,13,15,17,19,21,23,-1,25,-1,27,29,31,33,35,37,39,41,43,-1,-1,-1,-1,-1,-1,-1,-1,-1,-1,-1,-1,-1,-1,-1,-1,-1,-1,-1,-1],"loss_changes":[1.8192833E3,8.913086E0,2.2917703E2,0E0,4.0319214E0,2.8814304E1,1.3880109E2,7.1136475E-1,4.434084E0,2.6614494E0,2.5761578E1,5.3159134E1,4.286914E1,0E0,1.8385277E0,0E0,2.6513672E0,4.809657E0,2.1423454E0,2.1755672E1,1.8979954E1,4.926095E1,2.8870934E1,1.3694855E1,1.0991699E1,0E0,0E0,0E0,0E0,0E0,0E0,0E0,0E0,0E0,0E0,0E0,0E0,0E0,0E0,0E0,0E0,0E0,0E0,0E0,0E0],"parents":[2147483647,0,0,1,1,2,2,4,4,5,5,6,6,7,7,8,8,9,9,10,10,11,11,12,12,14,14,16,16,17,17,18,18,19,19,20,20,21,21,22,22,23,23,24,24],"right_children":[2,4,6,-1,8,10,12,14,16,18,20,22,24,-1,26,-1,28,30,32,34,36,38,40,42,44,-1,-1,-1,-1,-1,-1,-1,-1,-1,-1,-1,-1,-1,-1,-1,-1,-1,-1,-1,-1],"split_conditions":[4E0,3E0,6.528571E1,1.20987944E-1,7.875E1,4.22E1,9E0,5.975E1,7.894056E1,7.915063E1,7.005097E1,9E1,7.8333336E1,1.18405834E-1,6.02E1,-6.573392E-2,9.297861E1,7.383705E1,9.177448E1,6E0,7.5E1,7.865833E1,8E0,7.794704E1,1E0,-1.1698472E-2,9.4840854E-2,9.100886E-2,3.5555087E-2,1.2261217E-1,6.559793E-3,1.136682E-1,1.26975775E-2,-8.08168E-2,4.3435913E-2,-7.6599483E-4,3.671673E-2,4.156759E-2,-4.890244E-2,5.2185863E-4,1.114489E-1,-4.641398E-3,-5.908222E-2,-9.50566E-2,-5.210809E-2],"split_indices":[3,3,0,0,0,0,3,0,1,1,1,5,0,0,0,0,1,1,1,3,5,1,3,1,6,0,0,0,0,0,0,0,0,0,0,0,0,0,0,0,0,0,0,0,0],"split_type":[0,0,0,0,0,0,0,0,0,0,0,0,0,0,0,0,0,0,0,0,0,0,0,0,0,0,0,0,0,0,0,0,0,0,0,0,0,0,0,0,0,0,0,0,0],"sum_hessian":[3.9788303E3,1.00446735E3,2.974363E3,8.539554E2,1.5051196E2,6.913053E2,2.2830576E3,1.0793866E2,4.2573307E1,4.4773495E1,6.465318E2,9.978046E2,1.285253E3,4.1782078E1,6.615658E1,1.7613759E0,4.081193E1,1.4736705E1,3.003679E1,7.253418E1,5.739976E2,7.135328E2,2.8427188E2,5.334936E2,7.5175946E2,1.4483563E0,6.470822E1,2.4970955E1,1.5840977E1,4.6270366E0,1.0109669E1,2.7477264E1,2.5595267E0,5.43464E1,1.8187777E1,3.5811066E2,2.1588698E2,6.558177E1,6.47951E2,2.594751E2,2.4796772E1,5.1290318E1,4.8220325E2,6.820364E2,6.972306E1],"tree_param":{"num_deleted":"0","num_feature":"10","num_nodes":"45","size_leaf_vector":"1"}},{"base_weights":[1.8742466E-2,1.1405865E0,-3.3811405E-1,1.18397154E-1,8.9587307E-1,-8.9087754E-2,-6.17168E-1,1.0010234E0,6.368461E-1,6.504808E-1,-1.7018591E-1,-1.8529622E-1,-7.7590567E-1,6.7858785E-1,1.03485875E-1,-3.378531E-2,6.6750675E-1,-8.416407E-2,7.652078E-1,1.4198212E-1,-3.0507278E-1,1.0882264E-1,-5.2749413E-1,-8.0848926E-1,-9.450713E-2,8.7722376E-2,2.214634E-2,8.460643E-2,3.8601343E-2,9.0136506E-2,-2.3717457E-2,8.08088E-2,2.4148438E-2,-3.2893326E-2,3.323092E-2,-4.2945158E-2,-8.131593E-3,5.5275824E-2,-6.3055726E-3,-7.062908E-2,-1.9950357E-3,-8.485018E-2,-4.0209286E-2,6.0195114E-2,-2.6566237E-2],"categories":[],"categories_nodes":[],"categories_segments":[],"categories_sizes":[],"default_left":[0,0,0,0,0,0,0,0,0,0,0,0,0,0,0,0,0,0,0,0,0,0,0,0,0,0,0,0,0,0,0,0,0,0,0,0,0,0,0,0,0,0,0,0,0],"id":11,"left_children":[1,3,5,-1,7,9,11,13,15,17,19,21,23,25,-1,-1,27,29,31,33,35,37,39,41,43,-1,-1,-1,-1,-1,-1,-1,-1,-1,-1,-1,-1,-1,-1,-1,-1,-1,-1,-1,-1],"loss_changes":[1.5430817E3,8.815186E0,2.031594E2,0E0,3.2897263E0,9.2863495E1,9.438153E1,3.9753723E-1,1.5518341E0,1.2962166E1,5.8759018E1,3.7488266E1,2.2302124E1,9.387889E-1,0E0,0E0,1.852972E0,3.4665804E0,2.7794876E0,3.787976E1,2.707248E1,1.5358818E1,1.5600975E1,1.5298706E1,5.7780385E0,0E0,0E0,0E0,0E0,0E0,0E0,0E0,0E0,0E0,0E0,0E0,0E0,0E0,0E0,0E0,0E0,0E0,0E0,0E0,0E0],"parents":[2147483647,0,0,1,1,2,2,4,4,5,5,6,6,7,7,8,8,9,9,10,10,11,11,12,12,13,13,16,16,17,17,18,18,19,19,20,20,21,21,22,22,23,23,24,24],"right_children":[2,4,6,-1,8,10,12,14,16,18,20,22,24,26,-1,-1,28,30,32,34,36,38,40,42,44,-1,-1,-1,-1,-1,-1,-1,-1,-1,-1,-1,-1,-1,-1,-1,-1,-1,-1,-1,-1],"split_conditions":[4E0,3E0,7.6666664E1,1.18397154E-1,7.875E1,5E0,7E0,4E1,7.625833E1,4E1,6.0583332E1,9.196881E1,1.45E2,6.925E1,1.03485875E-1,-3.378531E-2,9.297861E1,5.2E1,1.3E2,6E0,8.5E1,8.497779E1,6.5E1,1E0,8.596174E1,8.7722376E-2,2.214634E-2,8.460643E-2,3.8601343E-2,9.0136506E-2,-2.3717457E-2,8.08088E-2,2.4148438E-2,-3.2893326E-2,3.323092E-2,-4.2945158E-2,-8.131593E-3,5.5275824E-2,-6.3055726E-3,-7.062908E-2,-1.9950357E-3,-8.485018E-2,-4.0209286E-2,6.0195114E-2,-2.6566237E-2],"split_indices":[3,3,0,0,0,3,3,5,1,5,0,1,5,0,0,0,1,0,5,3,5,1,5,6,1,0,0,0,0,0,0,0,0,0,0,0,0,0,0,0,0,0,0,0,0],"split_type":[0,0,0,0,0,0,0,0,0,0,0,0,0,0,0,0,0,0,0,0,0,0,0,0,0,0,0,0,0,0,0,0,0,0,0,0,0,0,0,0,0,0,0,0,0],"sum_hessian":[3.85249E3,9.2919586E2,2.9232942E3,7.860074E2,1.4318846E2,1.5454562E3,1.3778379E3,9.980765E1,4.3380814E1,1.5202794E2,1.3934282E3,3.7090292E2,1.006935E3,1.1478478E1,8.832916E1,1.0174379E0,4.2363377E1,2.0570818E1,1.314571E2,4.2041385E2,9.730144E2,1.9983061E2,1.710723E2,9.608041E2,4.6130924E1,7.360912E0,4.117566E0,2.4693872E1,1.7669504E1,2.107258E0,1.846356E1,1.2100665E2,1.045046E1,1.2079915E2,2.9961472E2,6.247937E2,3.482207E2,5.5155746E1,1.4467487E2,1.2621715E2,4.4855152E1,8.7369495E2,8.710911E1,8.603778E0,3.7527145E1],"tree_param":{"num_deleted":"0","num_feature":"10","num_nodes":"45","size_leaf_vector":"1"}},{"base_weights":[2.2661223E-3,1.1118312E0,-3.2968494E-1,1.1584593E-1,8.554653E-1,-4.7002643E-2,-5.4594636E-1,3.6145833E-1,9.197854E-1,4.322932E-1,-1.0988519E-1,-1.5804903E-1,-6.995709E-1,5.6782573E-1,1.139212E-2,1.0146927E-1,6.7091596E-1,4.8966397E-2,6.548966E-1,-1.8028553E-1,2.735296E-1,-2.7745327E-1,5.797309E-1,-5.9870356E-1,-9.324323E-1,2.0308563E-2,8.573406E-2,6.575849E-2,-5.234622E-2,4.592109E-2,9.548667E-2,9.6116684E-2,-1.5162005E-2,9.854541E-2,4.8698206E-2,-2.8586363E-2,3.6836427E-3,5.139622E-2,-8.509609E-3,2.7822569E-2,-4.1488703E-2,6.1725415E-2,-8.8786036E-2,-6.549787E-2,-1.8687345E-2,-9.695149E-2,-1.2246996E-2],"categories":[],"categories_nodes":[],"categories_segments":[],"categories_sizes":[],"default_left":[0,0,0,0,0,0,0,0,0,0,0,0,0,0,0,0,0,0,0,0,0,0,0,0,0,0,0,0,0,0,0,0,0,0,0,0,0,0,0,0,0,0,0,0,0,0,0],"id":12,"left_children":[1,3,5,-1,7,9,11,13,15,17,19,21,23,25,27,-1,29,31,33,35,37,39,41,43,45,-1,-1,-1,-1,-1,-1,-1,-1,-1,-1,-1,-1,-1,-1,-1,-1,-1,-1,-1,-1,-1,-1],"loss_changes":[1.383179E3,9.346558E0,1.7668518E2,0E0,4.017662E0,3.7841774E1,9.7474884E1,1.2519295E0,2.165062E0,1.2395496E1,2.9993298E1,4.1200623E1,2.6987183E1,9.809499E-1,2.9297276E0,0E0,1.7385159E0,1.0133569E1,4.6296883E0,2.1509253E1,1.4916711E1,3.0788721E1,4.13949E0,1.8906708E1,1.0473541E1,0E0,0E0,0E0,0E0,0E0,0E0,0E0,0E0,0E0,0E0,0E0,0E0,0E0,0E0,0E0,0E0,0E0,0E0,0E0,0E0,0E0,0E0],"parents":[2147483647,0,0,1,1,2,2,4,4,5,5,6,6,7,7,8,8,9,9,10,10,11,11,12,12,13,13,14,14,16,16,17,17,18,18,19,19,20,20,21,21,22,22,23,23,24,24],"right_children":[2,4,6,-1,8,10,12,14,16,18,20,22,24,26,28,-1,30,32,34,36,38,40,42,44,46,-1,-1,-1,-1,-1,-1,-1,-1,-1,-1,-1,-1,-1,-1,-1,-1,-1,-1,-1,-1,-1,-1],"split_conditions":[4E0,3E0,7.314286E1,1.1584593E-1,4E1,5E1,7E0,8.771519E1,7.875E1,7.728437E1,1E0,6E0,8.675E1,8.119324E1,6.838461E1,1.0146927E-1,6.5E1,5E0,4.22E1,7.5E1,1.1E1,8.504431E1,9.717157E1,1E0,1.35E2,2.0308563E-2,8.573406E-2,6.575849E-2,-5.234622E-2,4.592109E-2,9.548667E-2,9.6116684E-2,-1.5162005E-2,9.854541E-2,4.8698206E-2,-2.8586363E-2,3.6836427E-3,5.139622E-2,-8.509609E-3,2.7822569E-2,-4.1488703E-2,6.1725415E-2,-8.8786036E-2,-6.549787E-2,-1.8687345E-2,-9.695149E-2,-1.2246996E-2],"split_indices":[3,3,0,0,5,0,3,1,0,1,6,3,0,1,0,0,5,3,0,5,3,1,1,6,5,0,0,0,0,0,0,0,0,0,0,0,0,0,0,0,0,0,0,0,0,0,0],"split_type":[0,0,0,0,0,0,0,0,0,0,0,0,0,0,0,0,0,0,0,0,0,0,0,0,0,0,0,0,0,0,0,0,0,0,0,0,0,0,0,0,0,0,0,0,0,0,0],"sum_hessian":[3.7533647E3,8.637806E2,2.8895842E3,7.2787476E2,1.3590578E2,1.2529846E3,1.6365996E3,1.6419144E1,1.1948663E2,1.4464143E2,1.1083433E3,4.6486313E2,1.1717365E3,9.938343E0,6.480801E0,8.4271996E1,3.521464E1,5.358578E1,9.105564E1,9.368535E2,1.7148969E2,4.0064554E2,6.421759E1,8.2007855E2,3.516579E2,5.150742E0,4.7876005E0,2.8310082E0,3.6497931E0,2.1673075E1,1.3541565E1,8.975664E0,4.461012E1,2.903278E1,6.2022865E1,6.3012915E2,3.0672433E2,1.0240284E2,6.9086845E1,7.9238815E1,3.2140674E2,6.3181583E1,1.0360101E0,7.209703E2,9.910829E1,3.3607437E2,1.5583515E1],"tree_param":{"num_deleted":"0","num_feature":"10","num_nodes":"47","size_leaf_vector":"1"}},{"base_weights":[5.603088E-3,1.0880883E0,-3.011434E-1,1.1398335E-1,8.1793106E-1,-8.303676E-2,-5.58018E-1,1.0657286E-1,7.243228E-1,5.922032E-1,-1.5197685E-1,-2.9035997E-1,-7.526659E-1,6.37848E-1,1.08986095E-1,5.20936E-1,1.0000929E0,9.256032E-2,-2.972567E-1,-3.5641217E-1,3.766668E-1,-7.782182E-1,1.6634911E-1,-4.4324897E-2,6.566384E-2,4.2569783E-2,8.883648E-2,1.0934873E-1,7.4696816E-3,-2.7542356E-2,2.370792E-2,4.2593665E-3,-3.6645062E-2,2.7706519E-2,-4.2478863E-2,7.1467735E-2,-7.983181E-3,-6.934587E-2,-9.40938E-2,7.710678E-2,-2.5368063E-3],"categories":[],"categories_nodes":[],"categories_segments":[],"categories_sizes":[],"default_left":[0,0,0,0,0,0,0,0,0,0,0,0,0,0,0,0,0,0,0,0,0,0,0,0,0,0,0,0,0,0,0,0,0,0,0,0,0,0,0,0,0],"id":13,"left_children":[1,3,5,-1,7,9,11,-1,13,15,17,19,21,23,-1,25,27,29,31,33,35,37,39,-1,-1,-1,-1,-1,-1,-1,-1,-1,-1,-1,-1,-1,-1,-1,-1,-1,-1],"loss_changes":[1.2047688E3,1.026709E1,1.5834872E2,0E0,2.2974014E0,7.13195E1,6.7407745E1,0E0,2.4393578E0,3.6055107E0,4.938001E1,2.4284866E1,1.7762451E1,1.9690666E0,0E0,3.9234772E0,1.6491318E0,2.763906E1,2.0513847E1,2.1743626E1,7.752932E0,9.426025E0,2.470046E0,0E0,0E0,0E0,0E0,0E0,0E0,0E0,0E0,0E0,0E0,0E0,0E0,0E0,0E0,0E0,0E0,0E0,0E0],"parents":[2147483647,0,0,1,1,2,2,4,4,5,5,6,6,8,8,9,9,10,10,11,11,12,12,13,13,15,15,16,16,17,17,18,18,19,19,20,20,21,21,22,22],"right_children":[2,4,6,-1,8,10,12,-1,14,16,18,20,22,24,-1,26,28,30,32,34,36,38,40,-1,-1,-1,-1,-1,-1,-1,-1,-1,-1,-1,-1,-1,-1,-1,-1,-1,-1],"split_conditions":[4E0,3E0,7.6666664E1,1.1398335E-1,5.975E1,5E0,9E0,1.0657286E-1,1E0,1E0,6.3166668E1,1E0,7E1,6.02E1,1.08986095E-1,7.330769E1,7.490909E1,6E0,7.849947E1,8.257744E1,8.363636E1,8.7111115E1,7.414343E1,-4.4324897E-2,6.566384E-2,4.2569783E-2,8.883648E-2,1.0934873E-1,7.4696816E-3,-2.7542356E-2,2.370792E-2,4.2593665E-3,-3.6645062E-2,2.7706519E-2,-4.2478863E-2,7.1467735E-2,-7.983181E-3,-6.934587E-2,-9.40938E-2,7.710678E-2,-2.5368063E-3],"split_indices":[3,3,0,0,0,3,3,0,6,6,0,6,2,0,0,0,0,3,1,1,0,0,1,0,0,0,0,0,0,0,0,0,0,0,0,0,0,0,0,0,0],"split_type":[0,0,0,0,0,0,0,0,0,0,0,0,0,0,0,0,0,0,0,0,0,0,0,0,0,0,0,0,0,0,0,0,0,0,0,0,0,0,0,0,0],"sum_hessian":[3.6263042E3,8.0013635E2,2.8261677E3,6.688143E2,1.3132208E2,1.5291354E3,1.2970325E3,3.31591E1,9.816298E1,1.4095444E2,1.3881809E3,5.471477E2,7.4988477E2,8.160319E1,1.6559792E1,1.2192809E2,1.9026344E1,5.174926E2,8.706883E2,4.9827206E2,4.8875637E1,7.2974805E2,2.0136728E1,1.0081878E0,8.0595E1,9.854393E1,2.3384167E1,1.7117172E1,1.9091713E0,1.4567055E2,3.718221E2,1.4735056E2,7.2333777E2,4.8245636E1,4.5002643E2,2.7757366E1,2.111827E1,4.8327515E2,2.4647289E2,4.1198626E0,1.6016865E1],"tree_param":{"num_deleted":"0","num_feature":"10","num_nodes":"41","size_leaf_vector":"1"}},{"base_weights":[-2.7769962E-3,1.0665662E0,-2.8895292E-1,1.1204616E-1,7.8019613E-1,-7.475298E-2,-5.205674E-1,7.0549816E-1,1.0882937E-1,5.196988E-1,-1.3670835E-1,-2.4970299E-1,-7.281249E-1,9.986353E-2,6.27134E-1,4.293163E-1,1.0370259E0,6.802043E-2,-2.6988858E-1,-1.2817572E-1,-5.6708467E-1,-7.956177E-1,-4.4688526E-1,-4.215879E-2,6.54106E-2,8.209815E-2,3.350031E-2,1.4380601E-2,1.08343914E-1,-2.8693786E-2,2.0381613E-2,-1.3967608E-2,-4.650618E-2,2.4044124E-2,-2.6340438E-2,-7.873065E-2,-3.5515975E-2,-6.855413E-2,-9.6614145E-2,-5.249379E-2,8.003247E-3],"categories":[],"categories_nodes":[],"categories_segments":[],"categories_sizes":[],"default_left":[0,0,0,0,0,0,0,0,0,0,0,0,0,0,0,0,0,0,0,0,0,0,0,0,0,0,0,0,0,0,0,0,0,0,0,0,0,0,0,0,0],"id":14,"left_children":[1,3,5,-1,7,9,11,13,-1,15,17,19,21,-1,23,25,27,29,31,33,35,37,39,-1,-1,-1,-1,-1,-1,-1,-1,-1,-1,-1,-1,-1,-1,-1,-1,-1,-1],"loss_changes":[1.0765801E3,1.0588928E1,1.3764763E2,0E0,2.0154037E0,5.3216377E1,7.477438E1,1.6749535E0,0E0,5.932846E0,3.5671238E1,2.2296028E1,1.3962738E1,0E0,2.5877075E0,4.0773926E0,6.559658E-1,2.4938568E1,2.0074059E1,2.1032097E1,7.200981E0,1.0732422E1,6.1400146E0,0E0,0E0,0E0,0E0,0E0,0E0,0E0,0E0,0E0,0E0,0E0,0E0,0E0,0E0,0E0,0E0,0E0,0E0],"parents":[2147483647,0,0,1,1,2,2,4,4,5,5,6,6,7,7,9,9,10,10,11,11,12,12,14,14,15,15,16,16,17,17,18,18,19,19,20,20,21,21,22,22],"right_children":[2,4,6,-1,8,10,12,14,-1,16,18,20,22,-1,24,26,28,30,32,34,36,38,40,-1,-1,-1,-1,-1,-1,-1,-1,-1,-1,-1,-1,-1,-1,-1,-1,-1,-1],"split_conditions":[4E0,3E0,7.572727E1,1.1204616E-1,1E0,5E0,9E0,5.48E1,1.0882937E-1,1E0,6.3166668E1,8.7666664E1,1.3E1,9.986353E-2,5.6117645E1,5.4E1,4E1,6E0,1.1E1,5E0,1.4E1,1.2E1,1E0,-4.215879E-2,6.54106E-2,8.209815E-2,3.350031E-2,1.4380601E-2,1.08343914E-1,-2.8693786E-2,2.0381613E-2,-1.3967608E-2,-4.650618E-2,2.4044124E-2,-2.6340438E-2,-7.873065E-2,-3.5515975E-2,-6.855413E-2,-9.6614145E-2,-5.249379E-2,8.003247E-3],"split_indices":[3,3,0,0,6,3,3,0,0,6,0,0,3,0,0,0,0,3,3,3,2,3,6,0,0,0,0,0,0,0,0,0,0,0,0,0,0,0,0,0,0],"split_type":[0,0,0,0,0,0,0,0,0,0,0,0,0,0,0,0,0,0,0,0,0,0,0,0,0,0,0,0,0,0,0,0,0,0,0,0,0,0,0,0,0],"sum_hessian":[3.515995E3,7.4171783E2,2.7742773E3,6.2178436E2,1.1993352E2,1.4420109E3,1.3322665E3,9.917781E1,2.0755707E1,1.3540767E2,1.3066033E3,5.789432E2,7.5332324E2,1.8443306E1,8.0734505E1,1.168267E2,1.8580978E1,5.15165E2,7.914383E2,4.1965765E2,1.5928549E2,6.0605194E2,1.472713E2,1.657486E0,7.907702E1,2.1177147E1,9.564955E1,1.1202462E0,1.7460732E1,1.4224243E2,3.7292252E2,4.757505E2,3.1568777E2,1.1242436E2,3.072333E2,7.678221E1,8.250328E1,3.7135513E2,2.3469682E2,1.2827379E2,1.8997519E1],"tree_param":{"num_deleted":"0","num_feature":"10","num_nodes":"41","size_leaf_vector":"1"}},{"base_weights":[1.0283989E-2,1.0443223E0,-2.5159687E-1,1.1024886E-1,7.485931E-1,-7.2204664E-2,-4.7421828E-1,3.4741348E-1,8.0254346E-1,4.4443947E-1,-1.24763705E-1,-2.1579367E-1,-6.77038E-1,7.2263366E-1,1.6543078E-1,8.9352566E-1,5.771064E-1,-1.8522988E-1,5.551469E-1,-1.8991338E-1,2.1138917E-1,-6.84301E-1,-1.20092936E-1,-6.986213E-1,7.77677E-2,8.473593E-3,8.767638E-2,3.7119653E-2,-1.7395278E-2,9.040456E-2,1.3305314E-2,3.8898945E-2,9.666267E-2,7.577091E-2,-3.9578978E-2,4.8638593E-2,9.232008E-2,-8.202114E-4,-3.0856833E-2,3.6127098E-2,-8.188527E-3,-5.1085558E-2,-1.22696996E-1,-1.8883957E-2,9.208512E-2,-5.0178915E-2,-7.82739E-2,-9.807042E-3,1.6444151E-1],"categories":[],"categories_nodes":[],"categories_segments":[],"categories_sizes":[],"default_left":[0,0,0,0,0,0,0,0,0,0,0,0,0,0,0,0,0,0,0,0,0,0,0,0,0,0,0,0,0,0,0,0,0,0,0,0,0,0,0,0,0,0,0,0,0,0,0,0,0],"id":15,"left_children":[1,3,5,-1,7,9,11,13,15,17,19,21,23,25,27,29,31,33,35,37,39,41,43,45,47,-1,-1,-1,-1,-1,-1,-1,-1,-1,-1,-1,-1,-1,-1,-1,-1,-1,-1,-1,-1,-1,-1,-1,-1],"loss_changes":[9.188335E2,1.0969421E1,1.0809192E2,0E0,2.2278366E0,4.0799763E1,6.3168304E1,9.3828285E-1,1.5625229E0,9.776337E0,2.988368E1,2.3799664E1,1.1072571E1,3.9397216E-1,8.8364804E-1,4.426422E-1,1.9657049E0,4.5685816E0,2.5441093E0,2.4620079E1,9.774824E0,7.856903E0,3.1912022E1,1.0495697E1,5.5885825E0,0E0,0E0,0E0,0E0,0E0,0E0,0E0,0E0,0E0,0E0,0E0,0E0,0E0,0E0,0E0,0E0,0E0,0E0,0E0,0E0,0E0,0E0,0E0,0E0],"parents":[2147483647,0,0,1,1,2,2,4,4,5,5,6,6,7,7,8,8,9,9,10,10,11,11,12,12,13,13,14,14,15,15,16,16,17,17,18,18,19,19,20,20,21,21,22,22,23,23,24,24],"right_children":[2,4,6,-1,8,10,12,14,16,18,20,22,24,26,28,30,32,34,36,38,40,42,44,46,48,-1,-1,-1,-1,-1,-1,-1,-1,-1,-1,-1,-1,-1,-1,-1,-1,-1,-1,-1,-1,-1,-1,-1,-1],"split_conditions":[4E0,3E0,7.6666664E1,1.1024886E-1,4E1,5E0,9E0,6.1833332E1,7.875E1,4E1,1E0,5.5E1,1.65E2,4.1E1,8.771519E1,2.15E2,1.05E2,6.0583332E1,1E0,6.375E1,8.6183174E1,9.2884605E1,8E0,8.690038E1,1.5E1,8.473593E-3,8.767638E-2,3.7119653E-2,-1.7395278E-2,9.040456E-2,1.3305314E-2,3.8898945E-2,9.666267E-2,7.577091E-2,-3.9578978E-2,4.8638593E-2,9.232008E-2,-8.202114E-4,-3.0856833E-2,3.6127098E-2,-8.188527E-3,-5.1085558E-2,-1.22696996E-1,-1.8883957E-2,9.208512E-2,-5.0178915E-2,-7.82739E-2,-9.807042E-3,1.6444151E-1],"split_indices":[3,3,0,0,5,3,3,0,0,5,6,5,5,0,1,5,5,0,6,0,1,1,3,1,3,0,0,0,0,0,0,0,0,0,0,0,0,0,0,0,0,0,0,0,0,0,0,0,0],"split_type":[0,0,0,0,0,0,0,0,0,0,0,0,0,0,0,0,0,0,0,0,0,0,0,0,0,0,0,0,0,0,0,0,0,0,0,0,0,0,0,0,0,0,0,0,0,0,0,0,0],"sum_hessian":[3.3911287E3,6.846795E2,2.7064492E3,5.698657E2,1.1481376E2,1.4994727E3,1.2069766E3,1.4491703E1,1.0032206E2,1.3776971E2,1.3617029E3,5.3164294E2,6.753337E2,3.7627008E0,1.0729002E1,6.936436E1,3.0957705E1,2.0499838E1,1.17269875E2,1.141001E3,2.2070197E2,8.913382E1,4.4250912E2,6.566321E2,1.8701565E1,1.0338167E0,2.7288842E0,6.6210012E0,4.1080008E0,6.823168E1,1.1326691E0,2.2223574E1,8.734131E0,3.2677057E0,1.7232134E1,1.00765976E2,1.6503895E1,4.5115683E2,6.898441E2,1.4590396E2,7.4798004E1,6.9016464E1,2.011736E1,4.1586307E2,2.6646072E1,1.9868425E2,4.5794785E2,1.7657154E1,1.044411E0],"tree_param":{"num_deleted":"0","num_feature":"10","num_nodes":"49","size_leaf_vector":"1"}},{"base_weights":[5.695568E-3,1.0343009E0,-2.375988E-1,1.09588504E-1,7.3087734E-1,-2.0066697E-2,-4.199013E-1,2.5065854E-1,8.0582285E-1,-4.3345383E-1,5.402334E-2,-2.5417304E-1,-6.6285217E-1,4.6592632E-1,-9.314263E-2,7.4543494E-1,1.028828E-1,3.3661607E-1,-6.205414E-1,6.168499E-1,2.412273E-3,-3.3665958E-1,3.798359E-1,-5.133504E-1,-7.927273E-1,7.869945E-2,7.5428593E-3,-5.760997E-2,3.0740619E-2,7.6693475E-2,2.2305394E-2,4.3690916E-2,-5.267303E-2,-6.568485E-2,2.3240656E-2,4.8815165E-2,1.3074024E-1,-2.9722998E-2,1.0122229E-2,-8.052888E-2,-2.5209313E-2,6.830349E-2,3.970957E-3,-6.320163E-2,-3.512926E-2,-8.1906796E-2,-9.781445E-3],"categories":[],"categories_nodes":[],"categories_segments":[],"categories_sizes":[],"default_left":[0,0,0,0,0,0,0,0,0,0,0,0,0,0,0,0,0,0,0,0,0,0,0,0,0,0,0,0,0,0,0,0,0,0,0,0,0,0,0,0,0,0,0,0,0,0,0],"id":16,"left_children":[1,3,5,-1,7,9,11,13,15,17,19,21,23,25,27,29,-1,31,33,35,37,39,41,43,45,-1,-1,-1,-1,-1,-1,-1,-1,-1,-1,-1,-1,-1,-1,-1,-1,-1,-1,-1,-1,-1,-1],"loss_changes":[8.256619E2,1.0991882E1,1.05803955E2,0E0,3.7382889E0,3.7316147E1,5.827867E1,1.2446598E0,5.023308E-1,2.6886555E1,3.001787E1,4.534243E1,1.1010681E1,1.2129633E0,1.5473231E0,7.026825E-1,0E0,3.420208E0,4.777088E0,7.07613E0,2.8087336E1,3.0136604E1,1.0285826E1,5.0895004E0,5.646179E0,0E0,0E0,0E0,0E0,0E0,0E0,0E0,0E0,0E0,0E0,0E0,0E0,0E0,0E0,0E0,0E0,0E0,0E0,0E0,0E0,0E0,0E0],"parents":[2147483647,0,0,1,1,2,2,4,4,5,5,6,6,7,7,8,8,9,9,10,10,11,11,12,12,13,13,14,14,15,15,17,17,18,18,19,19,20,20,21,21,22,22,23,23,24,24],"right_children":[2,4,6,-1,8,10,12,14,16,18,20,22,24,26,28,30,-1,32,34,36,38,40,42,44,46,-1,-1,-1,-1,-1,-1,-1,-1,-1,-1,-1,-1,-1,-1,-1,-1,-1,-1,-1,-1,-1,-1],"split_conditions":[4E0,3E0,8.569227E1,1.09588504E-1,4E1,5.5E1,1.1E1,8.771519E1,1E0,7E0,5E0,1E0,9.0105316E1,3.6E1,9.1313545E1,9.783975E1,1.028828E-1,8.458897E1,1E0,8.410451E1,6E0,4.5E1,7E0,8.5E1,1.65E2,7.869945E-2,7.5428593E-3,-5.760997E-2,3.0740619E-2,7.6693475E-2,2.2305394E-2,4.3690916E-2,-5.267303E-2,-6.568485E-2,2.3240656E-2,4.8815165E-2,1.3074024E-1,-2.9722998E-2,1.0122229E-2,-8.052888E-2,-2.5209313E-2,6.830349E-2,3.970957E-3,-6.320163E-2,-3.512926E-2,-8.1906796E-2,-9.781445E-3],"split_indices":[3,3,1,0,5,5,3,1,6,3,3,6,1,2,1,1,0,1,6,1,3,5,3,5,5,0,0,0,0,0,0,0,0,0,0,0,0,0,0,0,0,0,0,0,0,0,0],"split_type":[0,0,0,0,0,0,0,0,0,0,0,0,0,0,0,0,0,0,0,0,0,0,0,0,0,0,0,0,0,0,0,0,0,0,0,0,0,0,0,0,0,0,0,0,0,0,0],"sum_hessian":[3.297315E3,6.301024E2,2.6672124E3,5.216206E2,1.08481834E2,1.2166078E3,1.4506046E3,1.5231228E1,9.325061E1,1.8417099E2,1.0324368E3,8.6356934E2,5.870353E2,9.1480465E0,6.0831814E0,7.679726E1,1.6453354E1,3.5842136E1,1.4832886E2,8.580191E1,9.466349E2,7.645659E2,9.90034E1,2.7519995E2,3.1183536E2,4.463107E0,4.6849394E0,2.559191E0,3.5239906E0,7.331179E1,3.4854677E0,3.255431E1,3.2878284E0,1.424933E2,5.835552E0,7.376182E1,1.2040093E1,2.3425288E2,7.12382E2,1.1557557E2,6.4899036E2,5.181011E1,4.71933E1,1.5719499E2,1.1800497E2,3.0027478E2,1.1560567E1],"tree_param":{"num_deleted":"0","num_feature":"10","num_nodes":"47","size_leaf_vector":"1"}},{"base_weights":[1.23311365E-2,1.0057095E0,-2.032816E-1,1.0784103E-1,6.6776544E-1,-8.398798E-2,-5.2305144E-1,5.836048E-1,1.0749805E-1,4.2808113E-1,-1.3899143E-1,-2.2052583E-1,-6.5516454E-1,8.989183E-2,4.6967125E-1,1.3166264E-1,3.9501762E-1,3.668051E-2,-2.7872494E-1,-5.0837815E-1,1.652828E-1,-6.742199E-1,3.00958E-1,-1.5490482E-2,5.276947E-2,3.258261E-2,7.949333E-2,9.456336E-2,1.3585273E-3,-1.2611655E-2,-4.8097324E-2,-1.385847E-2,-7.483733E-2,6.1682416E-3,9.382447E-2,-6.9015026E-2,4.8343074E-2,7.686191E-2,-6.7907326E-2],"categories":[],"categories_nodes":[],"categories_segments":[],"categories_sizes":[],"default_left":[0,0,0,0,0,0,0,0,0,0,0,0,0,0,0,0,0,0,0,0,0,0,0,0,0,0,0,0,0,0,0,0,0,0,0,0,0,0,0],"id":17,"left_children":[1,3,5,-1,7,9,11,13,-1,15,17,19,21,-1,23,-1,25,27,29,31,33,35,37,-1,-1,-1,-1,-1,-1,-1,-1,-1,-1,-1,-1,-1,-1,-1,-1],"loss_changes":[6.897244E2,1.3389587E1,1.00890785E2,0E0,2.9471474E0,5.4369896E1,2.858104E1,2.7615833E0,0E0,4.9818077E0,4.2771004E1,2.4513031E1,9.308014E0,0E0,2.516882E0,0E0,4.7767124E0,1.6206556E1,2.9888962E1,1.1098427E1,7.5293837E0,9.375519E0,5.3144917E0,0E0,0E0,0E0,0E0,0E0,0E0,0E0,0E0,0E0,0E0,0E0,0E0,0E0,0E0,0E0,0E0],"parents":[2147483647,0,0,1,1,2,2,4,4,5,5,6,6,7,7,9,9,10,10,11,11,12,12,14,14,16,16,17,17,18,18,19,19,20,20,21,21,22,22],"right_children":[2,4,6,-1,8,10,12,14,-1,16,18,20,22,-1,24,-1,26,28,30,32,34,36,38,-1,-1,-1,-1,-1,-1,-1,-1,-1,-1,-1,-1,-1,-1,-1,-1],"split_conditions":[4E0,3E0,8.22E1,1.0784103E-1,1E0,5E0,7E0,5.975E1,1.0749805E-1,7E0,6.7833336E1,1.9E1,6.1E1,8.989183E-2,6.3166668E1,1.3166264E-1,5.2E1,3.8E1,1.1E1,8.827273E1,1E0,2E0,1.7E1,-1.5490482E-2,5.276947E-2,3.258261E-2,7.949333E-2,9.456336E-2,1.3585273E-3,-1.2611655E-2,-4.8097324E-2,-1.385847E-2,-7.483733E-2,6.1682416E-3,9.382447E-2,-6.9015026E-2,4.8343074E-2,7.686191E-2,-6.7907326E-2],"split_indices":[3,3,0,0,6,3,3,0,0,2,0,2,2,0,0,0,2,0,3,0,6,6,3,0,0,0,0,0,0,0,0,0,0,0,0,0,0,0,0],"split_type":[0,0,0,0,0,0,0,0,0,0,0,0,0,0,0,0,0,0,0,0,0,0,0,0,0,0,0,0,0,0,0,0,0,0,0,0,0,0,0],"sum_hessian":[3.2182725E3,5.732965E2,2.6449758E3,4.6999664E2,1.032999E2,1.9272551E3,7.1772076E2,8.7623566E1,1.5676331E1,1.8627704E2,1.740978E3,2.1897028E2,4.987505E2,2.1428871E1,6.6194695E1,5.2901063E0,1.8098694E2,7.716291E2,9.69349E2,1.252233E2,9.374697E1,4.8929376E2,9.456706E0,5.48486E0,6.070983E1,1.5583911E2,2.5147818E1,1.8130411E1,7.5349866E2,5.533996E2,4.1594937E2,4.9905094E1,7.531821E1,8.361925E1,1.0127722E1,4.8305038E2,6.243369E0,6.5478554E0,2.9088507E0],"tree_param":{"num_deleted":"0","num_feature":"10","num_nodes":"39","size_leaf_vector":"1"}},{"base_weights":[1.8617036E-3,9.893329E-1,-2.0102835E-1,1.0667255E-1,6.505264E-1,2.0933986E-2,-3.6253846E-1,5.6852245E-1,1.058429E-1,5.351254E-1,-2.6276812E-2,-1.1154298E-1,-4.8951432E-1,6.264278E-1,9.44446E-2,8.7405825E-1,3.6010677E-1,-1.3003014E-1,1.8358174E-1,-2.2886199E-1,4.913701E-1,-3.3518156E-1,-6.040676E-1,2.0947557E-2,7.050379E-2,5.841423E-2,-7.217716E-2,9.818908E-2,3.9971817E-2,2.4312537E-2,1.3370329E-1,-1.8367244E-2,2.9488552E-2,3.0115739E-2,2.494659E-5,-2.7716928E-3,-4.7925584E-2,-2.360672E-2,6.0083784E-2,-6.312503E-2,-2.5387717E-2,-6.343037E-2,2.6388941E-2],"categories":[],"categories_nodes":[],"categories_segments":[],"categories_sizes":[],"default_left":[0,0,0,0,0,0,0,0,0,0,0,0,0,0,0,0,0,0,0,0,0,0,0,0,0,0,0,0,0,0,0,0,0,0,0,0,0,0,0,0,0,0,0],"id":18,"left_children":[1,3,5,-1,7,9,11,13,-1,15,17,19,21,23,25,27,29,31,33,35,37,39,41,-1,-1,-1,-1,-1,-1,-1,-1,-1,-1,-1,-1,-1,-1,-1,-1,-1,-1,-1,-1],"loss_changes":[6.3230347E2,1.3411133E1,9.3864494E1,0E0,2.8298836E0,2.68052E1,4.8244064E1,2.3450222E0,0E0,5.1934376E0,2.2053835E1,3.6214928E1,1.7584167E1,2.404581E0,4.702526E0,1.1890621E0,6.8674097E0,1.549976E1,7.224103E0,2.154042E1,6.787651E0,1.0211296E1,1.5289139E1,0E0,0E0,0E0,0E0,0E0,0E0,0E0,0E0,0E0,0E0,0E0,0E0,0E0,0E0,0E0,0E0,0E0,0E0,0E0,0E0],"parents":[2147483647,0,0,1,1,2,2,4,4,5,5,6,6,7,7,9,9,10,10,11,11,12,12,13,13,14,14,15,15,16,16,17,17,18,18,19,19,20,20,21,21,22,22],"right_children":[2,4,6,-1,8,10,12,14,-1,16,18,20,22,24,26,28,30,32,34,36,38,40,42,-1,-1,-1,-1,-1,-1,-1,-1,-1,-1,-1,-1,-1,-1,-1,-1,-1,-1,-1,-1],"split_conditions":[4E0,3E0,8.489702E1,1.0667255E-1,1E0,5E0,7E0,8.614286E1,1.058429E-1,7.748827E1,7.5E1,6E0,7.7666664E1,4E1,9.542262E1,7.1E1,8.438092E1,1E0,1.1E1,9.255984E1,5.85E1,8E0,1.65E2,2.0947557E-2,7.050379E-2,5.841423E-2,-7.217716E-2,9.818908E-2,3.9971817E-2,2.4312537E-2,1.3370329E-1,-1.8367244E-2,2.9488552E-2,3.0115739E-2,2.494659E-5,-2.7716928E-3,-4.7925584E-2,-2.360672E-2,6.0083784E-2,-6.312503E-2,-2.5387717E-2,-6.343037E-2,2.6388941E-2],"split_indices":[3,3,1,0,9,3,3,0,0,1,5,3,0,5,1,2,1,9,3,1,0,3,5,0,0,0,0,0,0,0,0,0,0,0,0,0,0,0,0,0,0,0,0],"split_type":[0,0,0,0,0,0,0,0,0,0,0,0,0,0,0,0,0,0,0,0,0,0,0,0,0,0,0,0,0,0,0,0,0,0,0,0,0,0,0,0,0,0,0],"sum_hessian":[3.154032E3,5.369255E2,2.6171064E3,4.3533475E2,1.0159071E2,1.1026339E3,1.5144725E3,8.6578835E1,1.5011872E1,9.185627E1,1.01077765E3,5.0940372E2,1.00506885E3,7.686851E1,9.710328E0,2.9920172E1,6.19361E1,6.7663306E2,3.3414462E2,4.26946E2,8.245771E1,4.2986124E2,5.7520764E2,1.2774833E1,6.409367E1,6.2468143E0,3.4635143E0,2.350641E1,6.4137626E0,5.642803E1,5.5080705E0,6.012923E2,7.534073E1,2.0319063E2,1.30954E2,2.3737215E2,1.8957387E2,1.0634252E1,7.1823456E1,9.115559E1,3.3870566E2,5.5610443E2,1.9103195E1],"tree_param":{"num_deleted":"0","num_feature":"10","num_nodes":"43","size_leaf_vector":"1"}},{"base_weights":[1.1933655E-3,9.69991E-1,-1.8462847E-1,1.05301455E-1,6.1071324E-1,9.4370765E-4,-3.228542E-1,1.7531009E-1,6.800213E-1,-3.7642196E-1,6.7558765E-2,-5.3162996E-2,-4.5759404E-1,3.6980504E-1,-1.4683521E-1,8.026903E-1,4.312233E-1,3.319952E-1,-5.4974025E-1,-4.7284725E-1,1.1880753E-1,-2.0305139E-1,2.732634E-1,-5.704511E-1,-2.6906088E-1,7.5605325E-2,-1.31269945E-2,-8.860497E-2,4.4479184E-2,1.0288705E-1,6.9885105E-2,-4.5028154E-2,5.2288778E-2,-2.9515598E-2,7.341195E-2,-1.6506089E-2,-8.19372E-2,-7.751495E-2,4.5466136E-2,2.4471192E-2,-1.1751057E-2,-3.139617E-2,4.377913E-2,4.1100055E-2,-2.5072325E-2,-4.8466768E-2,-8.331927E-2,9.652368E-3,-4.4956386E-2],"categories":[],"categories_nodes":[],"categories_segments":[],"categories_sizes":[],"default_left":[0,0,0,0,0,0,0,0,0,0,0,0,0,0,0,0,0,0,0,0,0,0,0,0,0,0,0,0,0,0,0,0,0,0,0,0,0,0,0,0,0,0,0,0,0,0,0,0,0],"id":19,"left_children":[1,3,5,-1,7,9,11,13,15,17,19,21,23,25,27,29,31,33,35,37,39,41,43,45,47,-1,-1,-1,-1,-1,-1,-1,-1,-1,-1,-1,-1,-1,-1,-1,-1,-1,-1,-1,-1,-1,-1,-1,-1],"loss_changes":[5.501337E2,1.4026855E1,6.577141E1,0E0,2.7384605E0,2.7566357E1,5.3375046E1,9.534952E-1,2.1365242E0,2.038418E1,2.586932E1,2.4064844E1,2.0694E1,1.886167E0,3.0699782E0,5.3331757E-1,2.5806313E0,8.530202E0,1.3614986E1,2.3045357E1,2.5382051E1,2.4080648E1,1.1278623E1,1.3390335E1,2.4379087E1,0E0,0E0,0E0,0E0,0E0,0E0,0E0,0E0,0E0,0E0,0E0,0E0,0E0,0E0,0E0,0E0,0E0,0E0,0E0,0E0,0E0,0E0,0E0,0E0],"parents":[2147483647,0,0,1,1,2,2,4,4,5,5,6,6,7,7,8,8,9,9,10,10,11,11,12,12,13,13,14,14,15,15,16,16,17,17,18,18,19,19,20,20,21,21,22,22,23,23,24,24],"right_children":[2,4,6,-1,8,10,12,14,16,18,20,22,24,26,28,30,32,34,36,38,40,42,44,46,48,-1,-1,-1,-1,-1,-1,-1,-1,-1,-1,-1,-1,-1,-1,-1,-1,-1,-1,-1,-1,-1,-1,-1,-1],"split_conditions":[1.4285715E-1,1.0714286E-1,8.489702E1,1.05301455E-1,4E1,5.5E1,2.5E-1,8.771519E1,7.8166664E1,2.5E-1,6.9235146E1,7.5E1,9E1,3.6E1,9.1313545E1,5.48E1,7.975401E1,1.7857143E-1,7.163636E1,2.1428572E-1,3.9285713E-1,2.1428572E-1,9.459461E1,8.7111115E1,3.9285713E-1,7.5605325E-2,-1.31269945E-2,-8.860497E-2,4.4479184E-2,1.0288705E-1,6.9885105E-2,-4.5028154E-2,5.2288778E-2,-2.9515598E-2,7.341195E-2,-1.6506089E-2,-8.19372E-2,-7.751495E-2,4.5466136E-2,2.4471192E-2,-1.1751057E-2,-3.139617E-2,4.377913E-2,4.1100055E-2,-2.5072325E-2,-4.8466768E-2,-8.331927E-2,9.652368E-3,-4.4956386E-2],"split_indices":[4,4,1,0,5,5,4,1,0,4,1,5,5,2,1,0,1,4,0,4,4,4,1,0,4,0,0,0,0,0,0,0,0,0,0,0,0,0,0,0,0,0,0,0,0,0,0,0,0],"split_type":[0,0,0,0,0,0,0,0,0,0,0,0,0,0,0,0,0,0,0,0,0,0,0,0,0,0,0,0,0,0,0,0,0,0,0,0,0,0,0,0,0,0,0,0,0,0,0,0,0],"sum_hessian":[3.0539001E3,4.9080862E2,2.5630916E3,3.971114E2,9.369725E1,1.0945792E3,1.4685125E3,1.33513775E1,8.034587E1,1.6353334E2,9.310459E2,4.8971274E2,9.787997E2,8.232854E0,5.1185236E0,5.2322266E1,2.8023603E1,3.196496E1,1.3156837E2,7.993403E1,8.511118E2,3.3586725E2,1.5384549E2,6.110161E2,3.6778357E2,4.3617697E0,3.8710845E0,2.054215E0,3.064309E0,1.366003E1,3.8662235E1,2.2710862E0,2.5752518E1,1.2592212E1,1.937275E1,5.4881702E1,7.6686676E1,6.040918E1,1.9524853E1,5.5525195E2,2.9585992E2,2.867497E2,4.9117546E1,1.2199345E2,3.1852043E1,4.6276956E2,1.4824655E2,1.2172043E2,2.4606314E2],"tree_param":{"num_deleted":"0","num_feature":"10","num_nodes":"49","size_leaf_vector":"1"}},{"base_weights":[1.24530345E-2,9.514617E-1,-1.551742E-1,1.04530804E-1,5.611932E-1,-1.3460104E-2,-3.254294E-1,4.8081306E-1,9.566387E-2,4.4002628E-1,-5.5825997E-2,-1.3282587E-1,-4.9692145E-1,8.709284E-1,3.8757157E-1,1.0776826E-1,7.184454E-1,3.3179379E-1,-9.225082E-2,-1.9127381E-1,3.7741745E-1,-5.748489E-1,-1.8740523E-1,9.9538684E-2,3.9554898E-2,-4.4058133E-2,4.0852044E-2,1.07821815E-1,6.5696955E-4,8.047467E-2,-1.1541393E-2,1.0097128E-1,2.6391203E-2,-3.3249464E-2,-2.3786437E-3,-9.923733E-3,-4.7495365E-2,1.024254E-1,2.6830195E-2,-4.3077722E-2,-7.2634496E-2,-2.603113E-2,5.6546647E-2],"categories":[],"categories_nodes":[],"categories_segments":[],"categories_sizes":[],"default_left":[0,0,0,0,0,0,0,0,0,0,0,0,0,0,0,0,0,0,0,0,0,0,0,0,0,0,0,0,0,0,0,0,0,0,0,0,0,0,0,0,0,0,0],"id":20,"left_children":[1,3,5,-1,7,9,11,13,-1,15,17,19,21,23,25,27,29,31,33,35,37,39,41,-1,-1,-1,-1,-1,-1,-1,-1,-1,-1,-1,-1,-1,-1,-1,-1,-1,-1,-1,-1],"loss_changes":[4.675505E2,1.5892426E1,6.080962E1,0E0,2.3810768E0,2.6472307E1,3.775068E1,2.4375687E0,0E0,1.0813435E1,1.7818697E1,1.6195267E1,1.4491699E1,4.2956734E-1,1.279499E0,5.3798127E0,4.6897545E0,4.723691E0,1.894746E1,1.2634768E1,3.6706357E0,1.0230545E1,6.91098E0,0E0,0E0,0E0,0E0,0E0,0E0,0E0,0E0,0E0,0E0,0E0,0E0,0E0,0E0,0E0,0E0,0E0,0E0,0E0,0E0],"parents":[2147483647,0,0,1,1,2,2,4,4,5,5,6,6,7,7,9,9,10,10,11,11,12,12,13,13,14,14,15,15,16,16,17,17,18,18,19,19,20,20,21,21,22,22],"right_children":[2,4,6,-1,8,10,12,14,-1,16,18,20,22,24,26,28,30,32,34,36,38,40,42,-1,-1,-1,-1,-1,-1,-1,-1,-1,-1,-1,-1,-1,-1,-1,-1,-1,-1,-1,-1],"split_conditions":[1.4285715E-1,1.0714286E-1,7.572727E1,1.04530804E-1,1E0,4.9E1,3.2142857E-1,5.48E1,9.566387E-2,7.87868E1,1.7857143E-1,1E0,4.642857E-1,5.8E1,5.6117645E1,5.4E1,5E-1,1.2E1,2.1428572E-1,8.8125E1,8.344215E1,8.375E1,7.1E1,9.9538684E-2,3.9554898E-2,-4.4058133E-2,4.0852044E-2,1.07821815E-1,6.5696955E-4,8.047467E-2,-1.1541393E-2,1.0097128E-1,2.6391203E-2,-3.3249464E-2,-2.3786437E-3,-9.923733E-3,-4.7495365E-2,1.024254E-1,2.6830195E-2,-4.3077722E-2,-7.2634496E-2,-2.603113E-2,5.6546647E-2],"split_indices":[4,4,0,0,6,0,4,0,0,1,4,6,4,2,0,2,4,2,4,0,1,0,2,0,0,0,0,0,0,0,0,0,0,0,0,0,0,0,0,0,0,0,0],"split_type":[0,0,0,0,0,0,0,0,0,0,0,0,0,0,0,0,0,0,0,0,0,0,0,0,0,0,0,0,0,0,0,0,0,0,0,0,0,0,0,0,0,0,0],"sum_hessian":[2.9684583E3,4.489377E2,2.5195205E3,3.605574E2,8.838032E1,1.3756007E3,1.1439198E3,7.529197E1,1.3088344E1,1.1673011E2,1.2588706E3,5.396316E2,6.0428815E2,1.2915192E1,6.2376778E1,5.3851837E1,6.2878277E1,1.0743863E2,1.151432E3,4.8473117E2,5.4900402E1,4.8206146E2,1.2222671E2,9.368547E0,3.5466447E0,1.0447373E0,6.1332043E1,4.173672E0,4.967816E1,5.7012608E1,5.865669E0,8.516071E0,9.892256E1,2.5450587E2,8.9692615E2,3.6700928E2,1.1772188E2,6.7138486E0,4.818655E1,2.4905519E2,2.3300629E2,1.1203206E2,1.0194644E1],"tree_param":{"num_deleted":"0","num_feature":"10","num_nodes":"43","size_leaf_vector":"1"}},{"base_weights":[-1.2305948E-2,9.198843E-1,-1.6844812E-1,1.0324697E0,4.9440697E-1,-1.0767417E-1,-5.716527E-1,1.03544615E-1,4.828982E-1,4.0843487E-1,9.4072825E-1,-1.0686522E-2,-2.9298636E-1,-4.0762842E-1,-7.2238934E-1,6.581362E-2,1.9348502E-3,8.513593E-1,3.1150883E-1,1.0053587E-1,2.7016511E-2,-7.2429895E-2,3.9699522E-1,2.2231334E-1,-3.7432697E-1,-2.7273385E-2,-6.057598E-1,-8.041037E-1,-4.0467346E-1,9.785014E-2,3.9399035E-2,-6.75459E-2,3.4327954E-2,7.370093E-2,-9.064717E-3,4.226515E-2,-9.5093966E-2,4.116096E-2,3.7124418E-3,-4.8008166E-2,4.584298E-4,9.365129E-2,-1.55913E-2,5.1373295E-3,-6.5546684E-2,-5.2958485E-2,-8.2693495E-2,1.1889469E-1,-5.8737822E-2],"categories":[],"categories_nodes":[],"categories_segments":[],"categories_sizes":[],"default_left":[0,0,0,0,0,0,0,0,0,0,0,0,0,0,0,0,0,0,0,0,0,0,0,0,0,0,0,0,0,0,0,0,0,0,0,0,0,0,0,0,0,0,0,0,0,0,0,0,0],"id":21,"left_children":[1,3,5,7,9,11,13,-1,15,17,19,21,23,25,27,-1,-1,29,31,-1,-1,33,35,37,39,41,43,45,47,-1,-1,-1,-1,-1,-1,-1,-1,-1,-1,-1,-1,-1,-1,-1,-1,-1,-1,-1,-1],"loss_changes":[4.2445862E2,1.9531006E1,6.114318E1,3.9642334E-2,3.0485287E0,3.903027E1,7.7886734E0,0E0,2.8385043E-1,3.031022E0,3.2134342E-1,3.5940544E1,3.1356049E1,1.1955124E1,4.0639877E0,0E0,0E0,3.8254833E-1,2.2566242E0,0E0,0E0,1.834967E1,6.8967705E0,3.5724673E0,2.5838783E1,7.0215397E0,3.4438896E0,3.985901E-1,1.1355186E1,0E0,0E0,0E0,0E0,0E0,0E0,0E0,0E0,0E0,0E0,0E0,0E0,0E0,0E0,0E0,0E0,0E0,0E0,0E0,0E0],"parents":[2147483647,0,0,1,1,2,2,3,3,4,4,5,5,6,6,8,8,9,9,10,10,11,11,12,12,13,13,14,14,17,17,18,18,21,21,22,22,23,23,24,24,25,25,26,26,27,27,28,28],"right_children":[2,4,6,8,10,12,14,-1,16,18,20,22,24,26,28,-1,-1,30,32,-1,-1,34,36,38,40,42,44,46,48,-1,-1,-1,-1,-1,-1,-1,-1,-1,-1,-1,-1,-1,-1,-1,-1,-1,-1,-1,-1],"split_conditions":[1.4285715E-1,1.0714286E-1,8.7111115E1,3E0,1E0,3.9285713E-1,3.2142857E-1,1.03544615E-1,1E1,5.48E1,9.601518E1,1E0,5.975E1,9.2384224E1,4.642857E-1,6.581362E-2,1.9348502E-3,5.8E1,5.6117645E1,1.0053587E-1,2.7016511E-2,4.22E1,9.8E1,4.642857E-1,5E-1,1.9E1,8.7666664E1,1.2E1,8.907856E1,9.785014E-2,3.9399035E-2,-6.75459E-2,3.4327954E-2,7.370093E-2,-9.064717E-3,4.226515E-2,-9.5093966E-2,4.116096E-2,3.7124418E-3,-4.8008166E-2,4.584298E-4,9.365129E-2,-1.55913E-2,5.1373295E-3,-6.5546684E-2,-5.2958485E-2,-8.2693495E-2,1.1889469E-1,-5.8737822E-2],"split_indices":[4,4,0,6,6,4,4,0,0,0,1,6,0,1,4,0,0,2,0,0,0,0,2,4,4,2,0,2,1,0,0,0,0,0,0,0,0,0,0,0,0,0,0,0,0,0,0,0,0],"split_type":[0,0,0,0,0,0,0,0,0,0,0,0,0,0,0,0,0,0,0,0,0,0,0,0,0,0,0,0,0,0,0,0,0,0,0,0,0,0,0,0,0,0,0,0,0,0,0,0,0],"sum_hessian":[2.91409E3,4.173804E2,2.4967097E3,3.2891867E2,8.846174E1,2.1707808E3,3.2592892E2,3.2626758E2,2.6511E0,7.577985E1,1.2681893E1,1.4256761E3,7.451047E2,1.5785883E2,1.680701E2,1.6192079E0,1.0318921E0,1.2208207E1,6.357164E1,1.1111651E1,1.5702423E0,1.2388715E3,1.8680469E2,1.0134463E2,6.4376E2,5.4456238E1,1.0340259E2,1.3246909E2,3.5601017E1,8.661125E0,3.5470815E0,1.3507187E0,6.222092E1,2.6399921E1,1.2124716E3,1.8398912E2,2.8155632E0,4.951193E1,5.1832703E1,5.030821E2,1.4067792E2,5.6730223E0,4.8783215E1,7.2692027E0,9.613339E1,1.2029112E1,1.2043998E2,3.0952854E0,3.250573E1],"tree_param":{"num_deleted":"0","num_feature":"10","num_nodes":"49","size_leaf_vector":"1"}},{"base_weights":[2.0354513E-2,9.3024635E-1,-1.23642825E-1,1.03029035E-1,5.7471335E-1,2.557166E-2,-2.6074603E-1,6.5079117E-1,2.7436745E-1,-2.5966916E-2,3.0279818E-1,-2.0004703E-2,-3.8018772E-1,4.8707214E-1,8.481937E-1,8.254233E-1,-6.797764E-2,2.6424078E-2,-3.3299056E-1,7.08351E-1,1.334295E-1,-1.0116797E-1,4.318785E-1,-7.8222865E-1,-3.1063777E-1,6.1847E-2,-1.2748735E-1,4.9075216E-2,9.0073496E-2,7.7561685E-3,9.412836E-2,-8.67868E-2,1.7462205E-2,6.546085E-2,7.302386E-4,-2.789623E-2,-9.830767E-2,-9.639621E-3,8.2729295E-2,3.0160239E-2,-4.2132918E-2,-2.340294E-2,2.2106482E-2,1.1366681E-1,3.162109E-2,-8.542043E-2,-1.522424E-2,-4.6239193E-3,-4.7491428E-2],"categories":[],"categories_nodes":[],"categories_segments":[],"categories_sizes":[],"default_left":[0,0,0,0,0,0,0,0,0,0,0,0,0,0,0,0,0,0,0,0,0,0,0,0,0,0,0,0,0,0,0,0,0,0,0,0,0,0,0,0,0,0,0,0,0,0,0,0,0],"id":22,"left_children":[1,3,5,-1,7,9,11,13,15,17,19,21,23,25,27,29,31,33,35,37,39,41,43,45,47,-1,-1,-1,-1,-1,-1,-1,-1,-1,-1,-1,-1,-1,-1,-1,-1,-1,-1,-1,-1,-1,-1,-1,-1],"loss_changes":[3.7357352E2,1.3264587E1,5.0369167E1,0E0,1.827898E0,1.6863716E1,3.6885773E1,1.8276749E0,3.7303011E0,1.602513E1,1.261404E1,1.5687279E1,2.3734741E1,1.0106957E1,1.22974396E-1,5.8024454E-1,2.6619956E0,1.0223365E1,4.826193E0,5.2746983E0,1.2418303E1,1.5566756E1,4.9504404E0,5.574501E0,3.1802773E1,0E0,0E0,0E0,0E0,0E0,0E0,0E0,0E0,0E0,0E0,0E0,0E0,0E0,0E0,0E0,0E0,0E0,0E0,0E0,0E0,0E0,0E0,0E0,0E0],"parents":[2147483647,0,0,1,1,2,2,4,4,5,5,6,6,7,7,8,8,9,9,10,10,11,11,12,12,13,13,14,14,15,15,16,16,17,17,18,18,19,19,20,20,21,21,22,22,23,23,24,24],"right_children":[2,4,6,-1,8,10,12,14,16,18,20,22,24,26,28,30,32,34,36,38,40,42,44,46,48,-1,-1,-1,-1,-1,-1,-1,-1,-1,-1,-1,-1,-1,-1,-1,-1,-1,-1,-1,-1,-1,-1,-1,-1],"split_conditions":[4E0,3E0,7.314286E1,1.03029035E-1,9.363E1,1E0,7E0,8.5857864E1,7.472727E1,8.945486E1,7E0,6E0,5E1,8.5294815E1,4E1,9.404181E1,9.452277E1,4.22E1,9.601518E1,7.005097E1,8.719375E1,6.5E1,4E1,1E1,1.1E1,6.1847E-2,-1.2748735E-1,4.9075216E-2,9.0073496E-2,7.7561685E-3,9.412836E-2,-8.67868E-2,1.7462205E-2,6.546085E-2,7.302386E-4,-2.789623E-2,-9.830767E-2,-9.639621E-3,8.2729295E-2,3.0160239E-2,-4.2132918E-2,-2.340294E-2,2.2106482E-2,1.1366681E-1,3.162109E-2,-8.542043E-2,-1.522424E-2,-4.6239193E-3,-4.7491428E-2],"split_indices":[3,3,0,0,1,6,3,1,0,1,3,3,5,1,5,1,1,0,1,1,1,5,5,3,3,0,0,0,0,0,0,0,0,0,0,0,0,0,0,0,0,0,0,0,0,0,0,0,0],"split_type":[0,0,0,0,0,0,0,0,0,0,0,0,0,0,0,0,0,0,0,0,0,0,0,0,0,0,0,0,0,0,0,0,0,0,0,0,0,0,0,0,0,0,0,0,0,0,0,0,0],"sum_hessian":[2.8493499E3,3.8857266E2,2.460777E3,3.0176157E2,8.6811104E1,1.1787325E3,1.2820447E3,6.833501E1,1.8476099E1,9.947138E2,1.8401872E2,4.2553098E2,8.565137E2,3.924988E1,2.9085123E1,6.539195E0,1.1936903E1,8.504975E2,1.442163E2,5.3273403E1,1.3074532E2,3.6139627E2,6.413469E1,1.2480692E2,7.317067E2,3.712989E1,2.1199927E0,5.0525603E0,2.4032562E1,1.1011124E0,5.4380827E0,2.1780744E0,9.758828E0,2.414231E1,8.2635516E2,1.3446971E2,9.746581E0,6.884334E0,4.638907E1,1.006807E2,3.0064617E1,2.560831E2,1.0531319E2,7.7972455E0,5.6337444E1,1.1169043E2,1.3116499E1,2.808951E2,4.508116E2],"tree_param":{"num_deleted":"0","num_feature":"10","num_nodes":"49","size_leaf_vector":"1"}},{"base_weights":[8.951087E-4,8.919156E-1,-1.2799306E-1,1.0104825E0,4.6254718E-1,-7.735828E-2,-4.911557E-1,1.027265E-1,8.1519717E-1,9.116524E-2,3.686429E-1,2.973273E-1,-1.2231549E-1,-6.052909E-1,-6.1158538E-2,5.8532137E-1,9.2400026E-1,-5.0016005E-2,4.366589E-1,-3.1628993E-1,4.1395217E-1,-2.0831646E-1,3.38892E-2,-3.2841006E-1,-7.601135E-1,2.778889E-1,-3.4570688E-1,6.387358E-2,4.5683896E-3,3.547425E-2,9.794839E-2,-7.236659E-2,1.2922381E-2,6.072521E-2,2.5715256E-2,7.185851E-2,-4.3417383E-2,3.1791218E-2,7.437595E-2,-4.4872615E-2,-1.387907E-2,1.9398319E-2,-1.64698E-2,-6.8386495E-2,9.634678E-4,-3.9497044E-2,-8.383474E-2,-1.5579306E-2,4.4304002E-2,-5.2634474E-2,3.7911605E-2],"categories":[],"categories_nodes":[],"categories_segments":[],"categories_sizes":[],"default_left":[0,0,0,0,0,0,0,0,0,0,0,0,0,0,0,0,0,0,0,0,0,0,0,0,0,0,0,0,0,0,0,0,0,0,0,0,0,0,0,0,0,0,0,0,0,0,0,0,0,0,0],"id":23,"left_children":[1,3,5,7,9,11,13,-1,15,-1,17,19,21,23,25,27,29,31,33,35,37,39,41,43,45,47,49,-1,-1,-1,-1,-1,-1,-1,-1,-1,-1,-1,-1,-1,-1,-1,-1,-1,-1,-1,-1,-1,-1,-1,-1],"loss_changes":[3.218836E2,1.7564575E1,4.498928E1,6.942749E-2,2.974041E0,3.625609E1,1.4659042E1,0E0,1.2801933E-1,0E0,1.9181585E0,1.6636715E1,2.5807295E1,9.889435E0,6.2630324E0,2.9709578E-1,1.7124271E-1,1.3256288E0,1.601284E0,4.87495E0,5.916172E0,2.0643078E1,2.1739904E1,1.0410591E1,3.9806137E0,2.1978352E0,4.8083243E0,0E0,0E0,0E0,0E0,0E0,0E0,0E0,0E0,0E0,0E0,0E0,0E0,0E0,0E0,0E0,0E0,0E0,0E0,0E0,0E0,0E0,0E0,0E0,0E0],"parents":[2147483647,0,0,1,1,2,2,3,3,4,4,5,5,6,6,8,8,10,10,11,11,12,12,13,13,14,14,15,15,16,16,17,17,18,18,19,19,20,20,21,21,22,22,23,23,24,24,25,25,26,26],"right_children":[2,4,6,8,10,12,14,-1,16,-1,18,20,22,24,26,28,30,32,34,36,38,40,42,44,46,48,50,-1,-1,-1,-1,-1,-1,-1,-1,-1,-1,-1,-1,-1,-1,-1,-1,-1,-1,-1,-1,-1,-1,-1,-1],"split_conditions":[4E0,3E0,8.7111115E1,7.9583336E1,5.48E1,5E0,1.15E2,1.027265E-1,8.4125E1,9.116524E-2,4E1,4.5E1,7.5E1,7E0,1E1,1E0,5E1,6.24E1,2.4E1,6.0583332E1,1.05E2,6E0,1.1E1,1.3E1,1.5E1,8.827273E1,1.5E1,6.387358E-2,4.5683896E-3,3.547425E-2,9.794839E-2,-7.236659E-2,1.2922381E-2,6.072521E-2,2.5715256E-2,7.185851E-2,-4.3417383E-2,3.1791218E-2,7.437595E-2,-4.4872615E-2,-1.387907E-2,1.9398319E-2,-1.64698E-2,-6.8386495E-2,9.634678E-4,-3.9497044E-2,-8.383474E-2,-1.5579306E-2,4.4304002E-2,-5.2634474E-2,3.7911605E-2],"split_indices":[3,3,0,0,0,3,5,0,0,0,5,5,5,3,3,9,5,0,2,0,5,3,3,2,2,0,3,0,0,0,0,0,0,0,0,0,0,0,0,0,0,0,0,0,0,0,0,0,0,0,0],"split_type":[0,0,0,0,0,0,0,0,0,0,0,0,0,0,0,0,0,0,0,0,0,0,0,0,0,0,0,0,0,0,0,0,0,0,0,0,0,0,0,0,0,0,0,0,0,0,0,0,0,0,0],"sum_hessian":[2.8008445E3,3.5320093E2,2.4476436E3,2.7571176E2,7.748918E1,2.1491997E3,2.9844403E2,2.4996951E2,2.574224E1,1.189449E1,6.5594696E1,2.2964687E2,1.9195527E3,2.3552138E2,6.292267E1,1.0319389E1,1.5422852E1,9.204275E0,5.639042E1,3.6402813E1,1.9324405E2,1.237754E3,6.817987E2,8.558483E1,1.4993654E2,2.8722452E1,3.4200214E1,9.222852E0,1.0965372E0,2.026345E0,1.3396506E1,1.2960019E0,7.908273E0,2.7691248E1,2.8699171E1,3.20154E0,3.320127E1,1.5118333E2,4.2060707E1,2.7643372E2,9.613203E2,3.774971E2,3.0430164E2,4.121946E1,4.4365368E1,2.7523582E1,1.22412964E2,7.9369416E0,2.0785511E1,2.7596535E1,6.603681E0],"tree_param":{"num_deleted":"0","num_feature":"10","num_nodes":"51","size_leaf_vector":"1"}},{"base_weights":[1.4520347E-2,8.8761425E-1,-1.0452254E-1,1.0059464E0,4.8112664E-1,1.2515719E-1,-1.7131935E-1,1.00971654E-1,4.381141E-1,3.915536E-1,7.464653E-1,6.3226885E-1,9.034007E-2,-7.126464E-2,-3.5507086E-1,1.8643994E-3,6.129765E-2,5.086264E-1,9.6420616E-2,4.409976E-1,9.083647E-1,2.927589E-1,9.71652E-1,7.6370224E-2,1.0371385E0,-3.9478454E-1,-2.1263566E-3,-4.335163E-1,4.5552354E-2,1.811307E-2,5.8803122E-2,-4.1080415E-2,2.2994546E-2,9.013558E-2,-5.0984263E-2,9.819683E-2,3.8214866E-2,4.464738E-2,-4.694019E-2,1.0170386E-1,1.72389E-2,3.8263682E-2,5.056861E-3,8.155068E-3,1.39709E-1,-1.0681539E-2,-6.449065E-2,-1.1105688E-2,3.3688594E-2,-2.919512E-2,-6.2456366E-2,-3.4647335E-3,2.0897365E-1],"categories":[],"categories_nodes":[],"categories_segments":[],"categories_sizes":[],"default_left":[0,0,0,0,0,0,0,0,0,0,0,0,0,0,0,0,0,0,0,0,0,0,0,0,0,0,0,0,0,0,0,0,0,0,0,0,0,0,0,0,0,0,0,0,0,0,0,0,0,0,0,0,0],"id":24,"left_children":[1,3,5,7,9,11,13,-1,15,17,19,21,23,25,27,-1,-1,29,31,33,35,37,39,41,43,45,47,49,51,-1,-1,-1,-1,-1,-1,-1,-1,-1,-1,-1,-1,-1,-1,-1,-1,-1,-1,-1,-1,-1,-1,-1,-1],"loss_changes":[2.8540622E2,1.5364166E1,3.709689E1,1.01989746E-1,1.5189018E0,9.566323E0,3.4402298E1,0E0,2.4115974E-1,1.9921436E0,4.9600792E-1,3.731183E0,6.682201E0,2.7145721E1,2.0758965E1,0E0,0E0,9.873352E-1,1.3143842E0,4.059316E0,4.7136307E-2,2.418349E0,4.41267E-1,3.970007E0,2.4154E0,1.5322788E1,3.7001762E1,1.474556E1,1.793617E1,0E0,0E0,0E0,0E0,0E0,0E0,0E0,0E0,0E0,0E0,0E0,0E0,0E0,0E0,0E0,0E0,0E0,0E0,0E0,0E0,0E0,0E0,0E0,0E0],"parents":[2147483647,0,0,1,1,2,2,3,3,4,4,5,5,6,6,8,8,9,9,10,10,11,11,12,12,13,13,14,14,17,17,18,18,19,19,20,20,21,21,22,22,23,23,24,24,25,25,26,26,27,27,28,28],"right_children":[2,4,6,8,10,12,14,-1,16,18,20,22,24,26,28,-1,-1,30,32,34,36,38,40,42,44,46,48,50,52,-1,-1,-1,-1,-1,-1,-1,-1,-1,-1,-1,-1,-1,-1,-1,-1,-1,-1,-1,-1,-1,-1,-1,-1],"split_conditions":[4E0,3E0,6.3166668E1,3E0,1.05E2,4.22E1,1.1E1,1.00971654E-1,9.5E1,8.04E1,6.744444E1,6E0,2.1E1,5.5E1,1.5E1,1.8643994E-3,6.129765E-2,4E1,8.18E1,6.09375E1,1.55E2,1E0,1.4E1,5E0,5.2444443E1,8E0,8E0,7.9181816E1,1.65E2,1.811307E-2,5.8803122E-2,-4.1080415E-2,2.2994546E-2,9.013558E-2,-5.0984263E-2,9.819683E-2,3.8214866E-2,4.464738E-2,-4.694019E-2,1.0170386E-1,1.72389E-2,3.8263682E-2,5.056861E-3,8.155068E-3,1.39709E-1,-1.0681539E-2,-6.449065E-2,-1.1105688E-2,3.3688594E-2,-2.919512E-2,-6.2456366E-2,-3.4647335E-3,2.0897365E-1],"split_indices":[3,3,0,6,5,0,3,0,5,0,0,3,3,5,3,0,0,5,0,0,5,6,3,3,0,3,3,0,5,0,0,0,0,0,0,0,0,0,0,0,0,0,0,0,0,0,0,0,0,0,0,0,0],"split_type":[0,0,0,0,0,0,0,0,0,0,0,0,0,0,0,0,0,0,0,0,0,0,0,0,0,0,0,0,0,0,0,0,0,0,0,0,0,0,0,0,0,0,0,0,0,0,0,0,0,0,0,0,0],"sum_hessian":[2.7440977E3,3.2847968E2,2.4156182E3,2.532745E2,7.520516E1,5.440472E2,1.8715709E3,2.5083087E2,2.4436226E0,5.807566E1,1.7129501E1,3.3850758E1,5.101964E2,1.2126549E3,6.58916E2,1.04454E0,1.3990825E0,4.106335E1,1.701231E1,7.223769E0,9.905732E0,1.7853354E1,1.5997404E1,5.0384296E2,6.353457E0,2.1269194E2,9.9996295E2,5.509527E2,1.0796331E2,8.653624E0,3.240973E1,3.1124275E0,1.3899882E1,4.902312E0,2.3214574E0,7.9303894E0,1.9753424E0,1.5201641E1,2.651713E0,1.4879965E1,1.1174387E0,3.8073883E1,4.6576907E2,2.0740075E0,4.2794495E0,9.9529366E1,1.13162575E2,7.5730133E2,2.4266164E2,3.179107E2,2.3304199E2,1.0483342E2,3.1298897E0],"tree_param":{"num_deleted":"0","num_feature":"10","num_nodes":"53","size_leaf_vector":"1"}},{"base_weights":[1.735036E-2,8.664695E-1,-9.045669E-2,1.001662E0,4.4208705E-1,4.6946317E-2,-2.0444901E-1,1.0227587E-1,7.508179E-1,2.7253723E-1,7.61999E-1,8.256957E-1,2.8822437E-2,-1.1209363E-1,-4.4270036E-1,4.8092917E-1,8.8490283E-1,5.8981085E-1,5.0407305E-2,8.1834036E-1,1.3615942E-1,1.0957391E0,-5.3909127E-2,-2.8987938E-1,5.983068E-2,-2.2106582E-1,1.0929188E-1,-5.2542233E-1,-1.0109467E-1,6.477895E-2,2.1157734E-2,3.1236216E-2,9.515484E-2,1.3010435E-2,7.000329E-2,-1.18837014E-1,1.6579947E-2,4.4343248E-2,9.119096E-2,-3.5807204E-2,5.859807E-2,7.1748845E-2,1.6054544E-1,-5.859852E-2,1.326516E-1,-5.8915175E-2,3.7305243E-2,-2.0728938E-2,1.046551E-2,5.5115998E-2,-2.4428852E-2,4.515594E-2,-1.0160491E-3,-2.9015515E-2,-6.550767E-2,2.587544E-2,-5.4475646E-2],"categories":[],"categories_nodes":[],"categories_segments":[],"categories_sizes":[],"default_left":[0,0,0,0,0,0,0,0,0,0,0,0,0,0,0,0,0,0,0,0,0,0,0,0,0,0,0,0,0,0,0,0,0,0,0,0,0,0,0,0,0,0,0,0,0,0,0,0,0,0,0,0,0,0,0,0,0],"id":25,"left_children":[1,3,5,7,9,11,13,-1,15,17,19,21,23,25,27,29,31,33,35,37,39,41,43,45,47,49,51,53,55,-1,-1,-1,-1,-1,-1,-1,-1,-1,-1,-1,-1,-1,-1,-1,-1,-1,-1,-1,-1,-1,-1,-1,-1,-1,-1,-1,-1],"loss_changes":[2.473735E2,1.7023987E1,3.756962E1,4.4978333E-1,3.8789864E0,1.5334604E1,2.8794182E1,0E0,3.5650444E-1,3.550498E0,7.892008E-1,5.929163E0,1.0536725E1,2.2846416E1,1.0285194E1,2.837863E-1,2.0827675E-1,9.642029E-1,4.624628E0,4.1063213E-1,9.454889E-1,2.502617E0,5.740993E0,1.897921E1,1.1646805E1,1.1509399E1,1.279003E1,8.786758E0,1.1725277E1,0E0,0E0,0E0,0E0,0E0,0E0,0E0,0E0,0E0,0E0,0E0,0E0,0E0,0E0,0E0,0E0,0E0,0E0,0E0,0E0,0E0,0E0,0E0,0E0,0E0,0E0,0E0,0E0],"parents":[2147483647,0,0,1,1,2,2,3,3,4,4,5,5,6,6,8,8,9,9,10,10,11,11,12,12,13,13,14,14,15,15,16,16,17,17,18,18,19,19,20,20,21,21,22,22,23,23,24,24,25,25,26,26,27,27,28,28],"right_children":[2,4,6,8,10,12,14,-1,16,18,20,22,24,26,28,30,32,34,36,38,40,42,44,46,48,50,52,54,56,-1,-1,-1,-1,-1,-1,-1,-1,-1,-1,-1,-1,-1,-1,-1,-1,-1,-1,-1,-1,-1,-1,-1,-1,-1,-1,-1,-1],"split_conditions":[4E0,3E0,8.51386E1,7.9583336E1,6.5E1,3.6E1,1.2E1,1.0227587E-1,8.4125E1,6.95E1,9.601518E1,7E0,7.005097E1,9E1,1.5E1,8.1545456E1,5E1,4E1,7.0833336E1,8.119324E1,9.739232E1,7.78E1,9.5E1,6E0,5E1,5.125E1,9.5E1,8.929175E1,1.9E1,6.477895E-2,2.1157734E-2,3.1236216E-2,9.515484E-2,1.3010435E-2,7.000329E-2,-1.18837014E-1,1.6579947E-2,4.4343248E-2,9.119096E-2,-3.5807204E-2,5.859807E-2,7.1748845E-2,1.6054544E-1,-5.859852E-2,1.326516E-1,-5.8915175E-2,3.7305243E-2,-2.0728938E-2,1.046551E-2,5.5115998E-2,-2.4428852E-2,4.515594E-2,-1.0160491E-3,-2.9015515E-2,-6.550767E-2,2.587544E-2,-5.4475646E-2],"split_indices":[3,3,1,0,5,2,3,0,0,0,1,3,1,5,3,0,5,5,0,1,1,0,5,3,5,0,5,1,3,0,0,0,0,0,0,0,0,0,0,0,0,0,0,0,0,0,0,0,0,0,0,0,0,0,0,0,0],"split_type":[0,0,0,0,0,0,0,0,0,0,0,0,0,0,0,0,0,0,0,0,0,0,0,0,0,0,0,0,0,0,0,0,0,0,0,0,0,0,0,0,0,0,0,0,0,0,0,0,0,0,0,0,0,0,0,0,0],"sum_hessian":[2.7004678E3,3.0344116E2,2.3970266E3,2.2909854E2,7.434261E1,1.0871709E3,1.3098557E3,2.0848694E2,2.0611605E1,4.98007E1,2.4541912E1,2.3712908E1,1.063458E3,9.450056E2,3.6485007E2,8.363712E0,1.2247892E1,1.982661E1,2.9974089E1,2.2232811E1,2.3091009E0,1.7954931E1,5.757978E0,9.355491E1,9.6990314E2,6.332859E2,3.1171973E2,2.9328992E2,7.1560135E1,4.296862E0,4.0668497E0,1.8699944E0,1.0377897E1,4.2560687E0,1.5570542E1,1.7618152E0,2.8212275E1,5.5868425E0,1.6645967E1,1.1974247E0,1.1116761E0,1.1688631E1,6.2663E0,4.5714464E0,1.1865312E0,6.4533394E1,2.9021511E1,1.3884804E2,8.3105505E2,1.7824753E1,6.154611E2,7.9926285E1,2.3179344E2,1.0535447E2,1.8793547E2,3.9742344E1,3.1817791E1],"tree_param":{"num_deleted":"0","num_feature":"10","num_nodes":"57","size_leaf_vector":"1"}},{"base_weights":[7.7362377E-3,9.9867535E-1,-7.723292E-2,1.0032485E-1,4.7958124E-2,1.25086885E-2,-2.6193073E-1,3.7996182E-1,-3.6946576E-2,-1.0211252E-1,-4.3800852E-1,2.5763282E-1,5.908984E-1,1.4307342E-1,-1.06996514E-1,2.8756735E-1,-2.5533852E-1,-5.079102E-1,-1.5692744E-1,6.797929E-2,9.889067E-3,6.3295454E-2,-1.0431317E-3,-2.4687415E-2,2.6693169E-2,1.227174E-2,-1.5607483E-2,1.05177715E-1,1.6240949E-2,-3.0641308E-2,2.2108253E-2,-3.858581E-2,-7.347825E-2,6.364697E-3,-7.944589E-2],"categories":[],"categories_nodes":[],"categories_segments":[],"categories_sizes":[],"default_left":[0,0,0,0,0,0,0,0,0,0,0,0,0,0,0,0,0,0,0,0,0,0,0,0,0,0,0,0,0,0,0,0,0,0,0],"id":26,"left_children":[1,3,5,-1,-1,7,9,11,13,15,17,19,21,23,25,27,29,31,33,-1,-1,-1,-1,-1,-1,-1,-1,-1,-1,-1,-1,-1,-1,-1,-1],"loss_changes":[2.2360535E2,1.6723633E-2,4.0546314E1,0E0,0E0,2.9946482E1,2.246466E1,4.8918E0,1.8333813E1,2.5187752E1,7.392105E0,8.342983E0,1.8016396E0,1.9740025E1,1.1815165E1,1.1228446E1,7.4267826E0,8.137062E0,1.0904453E1,0E0,0E0,0E0,0E0,0E0,0E0,0E0,0E0,0E0,0E0,0E0,0E0,0E0,0E0,0E0,0E0],"parents":[2147483647,0,0,1,1,2,2,5,5,6,6,7,7,8,8,9,9,10,10,11,11,12,12,13,13,14,14,15,15,16,16,17,17,18,18],"right_children":[2,4,6,-1,-1,8,10,12,14,16,18,20,22,24,26,28,30,32,34,-1,-1,-1,-1,-1,-1,-1,-1,-1,-1,-1,-1,-1,-1,-1,-1],"split_conditions":[3E0,9.75E1,7.9181816E1,1.0032485E-1,4.7958124E-2,5E0,9E0,7.2333336E1,6.0583332E1,8.786923E1,1.3E1,5.6E1,4.6E1,7.4794365E1,7.849947E1,3E1,1E0,1.2E1,2E1,6.797929E-2,9.889067E-3,6.3295454E-2,-1.0431317E-3,-2.4687415E-2,2.6693169E-2,1.227174E-2,-1.5607483E-2,1.05177715E-1,1.6240949E-2,-3.0641308E-2,2.2108253E-2,-3.858581E-2,-7.347825E-2,6.364697E-3,-7.944589E-2],"split_indices":[3,0,0,0,0,3,3,0,0,1,3,0,2,1,1,2,9,3,3,0,0,0,0,0,0,0,0,0,0,0,0,0,0,0,0],"split_type":[0,0,0,0,0,0,0,0,0,0,0,0,0,0,0,0,0,0,0,0,0,0,0,0,0,0,0,0,0,0,0,0,0,0,0],"sum_hessian":[2.653753E3,2.0872917E2,2.4450237E3,2.0598183E2,2.747347E0,1.6461292E3,7.988946E2,1.9447737E2,1.4516517E3,4.196114E2,3.792832E2,1.2449818E2,6.997919E1,4.0634668E2,1.045305E3,1.1818077E2,3.014306E2,3.0309897E2,7.618424E1,3.3124435E1,9.137374E1,6.5355705E1,4.6234803E0,9.77147E1,3.08632E2,1.8375037E2,8.6155475E2,1.5589316E1,1.0259145E2,2.7256702E2,2.8863607E1,1.9883246E2,1.042665E2,5.7270016E1,1.8914228E1],"tree_param":{"num_deleted":"0","num_feature":"10","num_nodes":"35","size_leaf_vector":"1"}},{"base_weights":[-1.1588426E-2,9.914547E-1,-9.117061E-2,9.9637024E-2,4.698567E-1,-1.446777E-1,2.3728736E-1,1.6667387E-2,5.8354624E-2,-2.2286248E-1,1.7107587E-2,7.215163E-1,1.7712516E-1,-7.692705E-2,-3.2145196E-1,1.3973424E-1,-1.1589197E-1,9.465821E-2,1.8457814E-1,6.0573035E-1,1.381932E-1,6.1627187E-2,-9.577646E-3,-1.0212244E-2,-4.5596838E-2,7.054685E-3,9.4904E-2,2.6559433E-2,-1.5846519E-2,-2.9661922E-2,4.3723848E-2,2.9470375E-2,8.5740834E-2,9.380257E-3,6.507889E-2],"categories":[],"categories_nodes":[],"categories_segments":[],"categories_sizes":[],"default_left":[0,0,0,0,0,0,0,0,0,0,0,0,0,0,0,0,0,0,0,0,0,0,0,0,0,0,0,0,0,0,0,0,0,0,0],"id":27,"left_children":[1,3,5,-1,7,9,11,-1,-1,13,15,17,19,21,23,25,27,-1,29,31,33,-1,-1,-1,-1,-1,-1,-1,-1,-1,-1,-1,-1,-1,-1],"loss_changes":[2.0935815E2,2.6168823E-2,4.2737804E1,0E0,3.0007243E-2,2.6441204E1,9.799183E0,0E0,0E0,2.0249878E1,1.1137338E1,4.3367767E0,4.996025E0,7.4999657E0,2.4756706E1,1.9823902E1,5.3635907E0,0E0,1.621323E0,1.7084942E0,6.3186007E0,0E0,0E0,0E0,0E0,0E0,0E0,0E0,0E0,0E0,0E0,0E0,0E0,0E0,0E0],"parents":[2147483647,0,0,1,1,2,2,4,4,5,5,6,6,9,9,10,10,11,11,12,12,13,13,14,14,15,15,16,16,18,18,19,19,20,20],"right_children":[2,4,6,-1,8,10,12,-1,-1,14,16,18,20,22,24,26,28,-1,30,32,34,-1,-1,-1,-1,-1,-1,-1,-1,-1,-1,-1,-1,-1,-1],"split_conditions":[3E0,9.75E1,1E0,9.9637024E-2,6.5E1,7.5E1,5E0,1.6667387E-2,5.8354624E-2,7.1E1,9E0,8.18E1,5.125E1,4E1,7E0,8E0,5.7E1,9.465821E-2,8.555556E1,8E0,1.6E1,6.1627187E-2,-9.577646E-3,-1.0212244E-2,-4.5596838E-2,7.054685E-3,9.4904E-2,2.6559433E-2,-1.5846519E-2,-2.9661922E-2,4.3723848E-2,2.9470375E-2,8.5740834E-2,9.380257E-3,6.507889E-2],"split_indices":[3,0,6,0,5,5,3,0,0,0,3,0,0,0,3,3,0,0,0,3,3,0,0,0,0,0,0,0,0,0,0,0,0,0,0],"split_type":[0,0,0,0,0,0,0,0,0,0,0,0,0,0,0,0,0,0,0,0,0,0,0,0,0,0,0,0,0,0,0,0,0,0,0],"sum_hessian":[2.6206028E3,1.9179436E2,2.4288086E3,1.8910204E2,2.6923106E0,2.089053E3,3.397554E2,1.4067875E0,1.285523E0,1.408163E3,6.8089014E2,3.633248E1,3.034229E2,5.684719E2,8.3969104E2,3.5423343E2,3.2665668E2,2.5063719E1,1.1268762E1,2.4053799E1,2.793691E2,1.4209622E1,5.542623E2,3.198818E2,5.198092E2,3.2733667E2,2.6896774E1,3.226858E1,2.943881E2,3.8198283E0,7.4489336E0,1.172941E1,1.2324388E1,2.581927E2,2.1176422E1],"tree_param":{"num_deleted":"0","num_feature":"10","num_nodes":"35","size_leaf_vector":"1"}},{"base_weights":[4.599277E-3,8.328299E-1,-8.214049E-2,9.835938E-1,4.4621834E-1,-1.0679378E-2,-2.578771E-1,1.0116587E-1,6.9123274E-1,5.9939843E-1,1.6608068E-1,9.840079E-2,-9.259736E-2,-1.6184124E-1,-5.045668E-1,3.790296E-1,8.504524E-2,8.494055E-2,4.2806923E-1,4.2375845E-1,-2.595748E-1,-3.2853132E-1,1.4991139E-1,3.1549355E-1,-1.3566905E-1,-5.2563425E-2,-3.9164582E-1,1.1562349E-1,-5.210948E-1,6.8398155E-2,1.6895233E-2,6.588212E-2,-2.9486552E-2,-3.694317E-2,5.4583836E-2,-7.358318E-2,4.6727147E-2,7.0446625E-2,-5.1699992E-2,9.5876664E-2,1.33910095E-2,9.066408E-2,1.1770961E-2,5.308691E-3,-2.5044039E-2,-1.7013652E-2,6.230793E-2,-5.400283E-2,-2.989671E-2,-3.6806162E-2,-7.3076956E-2],"categories":[],"categories_nodes":[],"categories_segments":[],"categories_sizes":[],"default_left":[0,0,0,0,0,0,0,0,0,0,0,0,0,0,0,0,0,0,0,0,0,0,0,0,0,0,0,0,0,0,0,0,0,0,0,0,0,0,0,0,0,0,0,0,0,0,0,0,0,0,0],"id":28,"left_children":[1,3,5,7,9,11,13,-1,15,17,19,21,23,25,27,29,-1,-1,31,33,35,37,39,41,43,45,47,-1,49,-1,-1,-1,-1,-1,-1,-1,-1,-1,-1,-1,-1,-1,-1,-1,-1,-1,-1,-1,-1,-1,-1],"loss_changes":[1.847E2,1.37673645E1,2.922414E1,7.3265076E-1,2.9132748E0,1.48024845E1,1.5856285E1,0E0,5.944176E-1,1.564209E0,2.983984E0,1.5675116E1,1.6670963E1,1.2176658E1,5.7641106E0,3.9905453E-1,0E0,0E0,4.985587E0,1.8189414E0,3.97891E0,1.5318602E1,8.086723E0,1.0487881E1,1.8566032E1,2.6346418E1,1.9890041E0,0E0,5.72731E0,0E0,0E0,0E0,0E0,0E0,0E0,0E0,0E0,0E0,0E0,0E0,0E0,0E0,0E0,0E0,0E0,0E0,0E0,0E0,0E0,0E0,0E0],"parents":[2147483647,0,0,1,1,2,2,3,3,4,4,5,5,6,6,8,8,9,9,10,10,11,11,12,12,13,13,14,14,15,15,18,18,19,19,20,20,21,21,22,22,23,23,24,24,25,25,26,26,28,28],"right_children":[2,4,6,8,10,12,14,-1,16,18,20,22,24,26,28,30,-1,-1,32,34,36,38,40,42,44,46,48,-1,50,-1,-1,-1,-1,-1,-1,-1,-1,-1,-1,-1,-1,-1,-1,-1,-1,-1,-1,-1,-1,-1,-1],"split_conditions":[4E0,3E0,8.971909E1,7.9583336E1,7.8166664E1,6.7833336E1,1.2E1,1.0116587E-1,8.4125E1,2.4E1,9.297861E1,7.005097E1,3E1,8.725E1,8E0,9.297861E1,8.504524E-2,8.494055E-2,8.420351E1,7.975401E1,8.7111115E1,5.2E1,3.6333332E1,8.794784E1,8.257744E1,8E0,1.3E1,1.1562349E-1,9.269548E1,6.8398155E-2,1.6895233E-2,6.588212E-2,-2.9486552E-2,-3.694317E-2,5.4583836E-2,-7.358318E-2,4.6727147E-2,7.0446625E-2,-5.1699992E-2,9.5876664E-2,1.33910095E-2,9.066408E-2,1.1770961E-2,5.308691E-3,-2.5044039E-2,-1.7013652E-2,6.230793E-2,-5.400283E-2,-2.989671E-2,-3.6806162E-2,-7.3076956E-2],"split_indices":[3,3,1,0,0,0,3,0,0,2,1,1,2,0,2,1,0,0,1,1,0,0,0,1,1,3,2,0,1,0,0,0,0,0,0,0,0,0,0,0,0,0,0,0,0,0,0,0,0,0,0],"split_type":[0,0,0,0,0,0,0,0,0,0,0,0,0,0,0,0,0,0,0,0,0,0,0,0,0,0,0,0,0,0,0,0,0,0,0,0,0,0,0,0,0,0,0,0,0,0,0,0,0,0,0],"sum_hessian":[2.56902E3,2.427293E2,2.3262908E3,1.735192E2,6.92101E1,1.6545496E3,6.717413E2,1.5607654E2,1.7442661E1,4.400718E1,2.5202915E1,7.095402E2,9.450093E2,4.8470322E2,1.8703804E2,7.0328894E0,1.0409772E1,1.6285423E1,2.7721758E1,1.5701938E1,9.500977E0,7.581226E1,6.3372797E2,8.961453E1,8.553948E2,3.293282E2,1.5537506E2,1.163554E0,1.8587448E2,1.9485223E0,5.084367E0,2.108149E1,6.6402693E0,1.8240945E0,1.3877844E1,5.732479E0,3.7684977E0,1.1275165E1,6.4537094E1,1.115067E1,6.2257733E2,2.1567734E1,6.80468E1,3.2364957E2,5.317452E2,2.8115134E2,4.817683E1,5.787998E1,9.749507E1,1.0904343E2,7.6831055E1],"tree_param":{"num_deleted":"0","num_feature":"10","num_nodes":"51","size_leaf_vector":"1"}},{"base_weights":[1.0744624E-2,9.630927E-1,-5.287613E-2,9.6902125E-2,2.5731927E-2,-1.3438098E-1,9.78282E-2,-1.6930063E-1,1.6784513E-1,1.8874489E-1,-5.200519E-2,-3.6475065E-1,-1.1520844E-1,8.1752765E-1,1.3180423E-1,1.23619884E-1,3.8376835E-1,-2.2527853E-1,2.9008967E-1,-2.8739322E-2,-8.887512E-2,-1.0537865E-3,-2.3116704E-2,9.946803E-2,3.3434406E-2,-4.016966E-2,1.7507395E-2,3.7961718E-2,3.0675905E-3,8.84813E-2,1.736393E-2,-2.9567668E-2,7.6790797E-3,2.1361183E-2,1.21411584E-1],"categories":[],"categories_nodes":[],"categories_segments":[],"categories_sizes":[],"default_left":[0,0,0,0,0,0,0,0,0,0,0,0,0,0,0,0,0,0,0,0,0,0,0,0,0,0,0,0,0,0,0,0,0,0,0],"id":29,"left_children":[1,3,5,-1,-1,7,9,11,13,15,17,19,21,23,25,27,29,31,33,-1,-1,-1,-1,-1,-1,-1,-1,-1,-1,-1,-1,-1,-1,-1,-1],"loss_changes":[1.5495456E2,4.2074585E-1,2.946166E1,0E0,0E0,1.645396E1,1.1481018E1,1.4713608E1,3.6785703E0,6.611616E0,1.8961863E1,1.1989288E1,1.3283338E1,3.7847233E-1,3.6344986E0,9.37536E0,1.3615025E1,4.534547E0,7.345749E0,0E0,0E0,0E0,0E0,0E0,0E0,0E0,0E0,0E0,0E0,0E0,0E0,0E0,0E0,0E0,0E0],"parents":[2147483647,0,0,1,1,2,2,5,5,6,6,7,7,8,8,9,9,10,10,11,11,12,12,13,13,14,14,15,15,16,16,17,17,18,18],"right_children":[2,4,6,-1,-1,8,10,12,14,16,18,20,22,24,26,28,30,32,34,-1,-1,-1,-1,-1,-1,-1,-1,-1,-1,-1,-1,-1,-1,-1,-1],"split_conditions":[3E0,3E0,9E1,9.6902125E-2,2.5731927E-2,1E0,1.1E1,2.4E1,1.2E1,8E0,1.3E1,1.2E1,9E0,6E0,2E1,5E0,9E0,1.45E2,2.2E1,-2.8739322E-2,-8.887512E-2,-1.0537865E-3,-2.3116704E-2,9.946803E-2,3.3434406E-2,-4.016966E-2,1.7507395E-2,3.7961718E-2,3.0675905E-3,8.84813E-2,1.736393E-2,-2.9567668E-2,7.6790797E-3,2.1361183E-2,1.21411584E-1],"split_indices":[3,6,5,0,0,6,3,2,2,3,3,3,3,3,2,3,3,5,3,0,0,0,0,0,0,0,0,0,0,0,0,0,0,0,0],"split_type":[0,0,0,0,0,0,0,0,0,0,0,0,0,0,0,0,0,0,0,0,0,0,0,0,0,0,0,0,0,0,0,0,0,0,0],"sum_hessian":[2.5556252E3,1.591499E2,2.3964753E3,1.574543E2,1.6956042E0,1.5553887E3,8.4108673E2,1.3946847E3,1.6070406E2,5.232977E2,3.17789E2,3.0107486E2,1.0936097E3,7.3067827E0,1.5339726E2,3.9352133E2,1.2977637E2,2.1117097E2,1.0661804E2,2.636945E2,3.7380383E1,5.753544E2,5.1825543E2,4.5719447E0,2.7348382E0,1.0886527E1,1.4251074E2,1.0399677E2,2.8952457E2,3.739607E1,9.23803E1,1.712758E2,3.9895176E1,9.96053E1,7.012743E0],"tree_param":{"num_deleted":"0","num_feature":"10","num_nodes":"35","size_leaf_vector":"1"}},{"base_weights":[-5.805434E-5,7.896161E-1,-7.307904E-2,9.6145856E-1,4.0627205E-1,-3.2099955E-2,-4.0346637E-1,9.861066E-2,6.906384E-1,5.244142E-1,1.3775945E-1,2.849031E-1,-7.089914E-2,-5.161637E-1,-1.9162003E-2,4.1994253E-1,8.1210333E-1,8.38742E-1,4.2998224E-1,-6.234027E-1,3.300315E-1,-3.6930758E-1,4.0495244E-1,-1.1082191E-1,1.5536384E-1,-3.4369975E-1,-7.193841E-1,-1.02761395E-1,5.429322E-1,8.1563685E-3,7.321547E-2,1.7292177E-2,9.026947E-2,3.5220765E-2,9.190347E-2,-4.3763544E-2,4.6737302E-2,1.5848521E-2,-9.207098E-2,-1.30668795E-2,7.048334E-2,2.8117517E-2,-4.6568092E-2,1.9393569E-2,5.3563107E-2,-2.8694361E-2,-5.8303415E-3,1.2203238E-2,9.4767645E-2,-6.007976E-2,-1.7597407E-2,6.5268017E-3,-8.079048E-2,1.1389792E-2,-4.0515184E-2,1.3572104E-1,1.7743766E-2],"categories":[],"categories_nodes":[],"categories_segments":[],"categories_sizes":[],"default_left":[0,0,0,0,0,0,0,0,0,0,0,0,0,0,0,0,0,0,0,0,0,0,0,0,0,0,0,0,0,0,0,0,0,0,0,0,0,0,0,0,0,0,0,0,0,0,0,0,0,0,0,0,0,0,0,0,0],"id":30,"left_children":[1,3,5,7,9,11,13,-1,15,17,19,21,23,25,27,29,31,33,35,37,39,41,43,45,47,49,51,53,55,-1,-1,-1,-1,-1,-1,-1,-1,-1,-1,-1,-1,-1,-1,-1,-1,-1,-1,-1,-1,-1,-1,-1,-1,-1,-1,-1,-1],"loss_changes":[1.4509303E2,1.3639481E1,3.1170704E1,2.9571533E-1,2.073926E0,2.5236324E1,1.09938965E1,0E0,1.7005396E-1,1.0233402E0,3.4295406E0,1.7723547E1,1.652435E1,6.6369095E0,2.8118002E0,6.67693E-1,4.0318823E-1,5.6010723E-2,1.4342589E0,1.2590265E0,3.2415555E0,2.3387237E0,5.122965E0,1.4356497E1,7.1334414E0,4.5585566E0,6.2521935E0,3.446236E0,2.066493E0,0E0,0E0,0E0,0E0,0E0,0E0,0E0,0E0,0E0,0E0,0E0,0E0,0E0,0E0,0E0,0E0,0E0,0E0,0E0,0E0,0E0,0E0,0E0,0E0,0E0,0E0,0E0,0E0],"parents":[2147483647,0,0,1,1,2,2,3,3,4,4,5,5,6,6,8,8,9,9,10,10,11,11,12,12,13,13,14,14,15,15,16,16,17,17,18,18,19,19,20,20,21,21,22,22,23,23,24,24,25,25,26,26,27,27,28,28],"right_children":[2,4,6,8,10,12,14,-1,16,18,20,22,24,26,28,30,32,34,36,38,40,42,44,46,48,50,52,54,56,-1,-1,-1,-1,-1,-1,-1,-1,-1,-1,-1,-1,-1,-1,-1,-1,-1,-1,-1,-1,-1,-1,-1,-1,-1,-1,-1,-1],"split_conditions":[4E0,3E0,8.7111115E1,7.9583336E1,8.04E1,5E0,1.2E2,9.861066E-2,8.4125E1,5.48E1,8.18E1,5.5E1,1E0,9E0,3.4E1,2E0,5E1,3.4333332E1,5.6117645E1,1E1,1.3E1,6.475E1,7.18E1,6E0,8.4833336E1,1.3E1,1.2E1,1.1E1,8E0,8.1563685E-3,7.321547E-2,1.7292177E-2,9.026947E-2,3.5220765E-2,9.190347E-2,-4.3763544E-2,4.6737302E-2,1.5848521E-2,-9.207098E-2,-1.30668795E-2,7.048334E-2,2.8117517E-2,-4.6568092E-2,1.9393569E-2,5.3563107E-2,-2.8694361E-2,-5.8303415E-3,1.2203238E-2,9.4767645E-2,-6.007976E-2,-1.7597407E-2,6.5268017E-3,-8.079048E-2,1.1389792E-2,-4.0515184E-2,1.3572104E-1,1.7743766E-2],"split_indices":[3,3,0,0,0,3,5,0,0,0,0,5,9,3,2,3,5,0,0,2,2,0,0,3,0,2,2,3,3,0,0,0,0,0,0,0,0,0,0,0,0,0,0,0,0,0,0,0,0,0,0,0,0,0,0,0,0],"split_type":[0,0,0,0,0,0,0,0,0,0,0,0,0,0,0,0,0,0,0,0,0,0,0,0,0,0,0,0,0,0,0,0,0,0,0,0,0,0,0,0,0,0,0,0,0,0,0,0,0,0,0,0,0,0,0,0,0],"sum_hessian":[2.5142327E3,2.119812E2,2.3022515E3,1.4532707E2,6.665413E1,2.0491816E3,2.5306993E2,1.3078296E2,1.454411E1,4.5626163E1,2.1027967E1,2.2276549E2,1.826416E3,1.954199E2,5.7650024E1,5.8853564E0,8.658754E0,8.719688E0,3.6906475E1,3.7883682E0,1.72396E1,3.4217953E1,1.8854755E2,1.5529222E3,2.734938E2,1.0716505E2,8.825487E1,5.0897327E1,6.752699E0,3.4295826E0,2.4557738E0,1.4359556E0,7.2227983E0,1.9981883E0,6.7215E0,1.08255E0,3.5823925E1,1.1722909E0,2.6160774E0,8.025792E0,9.213807E0,4.168001E0,3.004995E1,7.305848E1,1.1548906E2,3.5567987E2,1.1972424E3,2.635602E2,9.933581E0,4.1290695E1,6.587435E1,8.973756E0,7.928111E1,3.0015152E1,2.0882174E1,1.2513922E0,5.5013065E0],"tree_param":{"num_deleted":"0","num_feature":"10","num_nodes":"57","size_leaf_vector":"1"}},{"base_weights":[1.0033582E-4,9.766144E-1,-5.512887E-2,9.8409176E-2,1.474945E-2,1.13978095E-1,-1.06762275E-1,-1.365908E-1,1.8941854E-1,-2.7232276E-2,-2.7069038E-1,-3.8657668E-1,2.8807235E-1,9.292563E-2,1.604602E-1,-3.4333026E-1,3.4638323E-2,9.3412375E-1,-2.913092E-1,5.671021E-2,-6.125417E-2,8.020577E-2,2.1161767E-2,2.1032602E-2,-1.4994228E-2,-8.647765E-3,-6.039418E-2,-4.5793573E-3,2.9791517E-2,1.1499957E-1,-4.0761974E-2,-3.3916324E-2,2.8952697E-2],"categories":[],"categories_nodes":[],"categories_segments":[],"categories_sizes":[],"default_left":[0,0,0,0,0,0,0,0,0,0,0,0,0,0,0,0,0,0,0,0,0,0,0,0,0,0,0,0,0,0,0,0,0],"id":31,"left_children":[1,3,5,-1,-1,7,9,11,13,15,17,19,21,-1,23,25,27,29,31,-1,-1,-1,-1,-1,-1,-1,-1,-1,-1,-1,-1,-1,-1],"loss_changes":[1.3432307E2,6.813965E-1,2.059489E1,0E0,0E0,1.045797E1,2.3543058E1,1.3730385E1,8.947429E0,2.3821182E1,1.4928379E1,1.7841255E1,1.7207937E0,0E0,6.374649E0,1.3293621E1,2.1592808E1,3.4128895E0,1.6242218E1,0E0,0E0,0E0,0E0,0E0,0E0,0E0,0E0,0E0,0E0,0E0,0E0,0E0,0E0],"parents":[2147483647,0,0,1,1,2,2,5,5,6,6,7,7,8,8,9,9,10,10,11,11,12,12,14,14,15,15,16,16,17,17,18,18],"right_children":[2,4,6,-1,-1,8,10,12,14,16,18,20,22,-1,24,26,28,30,32,-1,-1,-1,-1,-1,-1,-1,-1,-1,-1,-1,-1,-1,-1],"split_conditions":[1.0714286E-1,3E0,6.3166668E1,9.8409176E-2,1.474945E-2,7.4794365E1,3.9285713E-1,2.1428572E-1,3.8E1,5.5E1,7.414343E1,1.7857143E-1,7.1E1,9.292563E-2,8.951191E1,2.857143E-1,2.857143E-1,1.3E2,1.45E2,5.671021E-2,-6.125417E-2,8.020577E-2,2.1161767E-2,2.1032602E-2,-1.4994228E-2,-8.647765E-3,-6.039418E-2,-4.5793573E-3,2.9791517E-2,1.1499957E-1,-4.0761974E-2,-3.3916324E-2,2.8952697E-2],"split_indices":[4,6,0,0,0,1,4,4,0,5,1,4,2,0,1,4,4,5,5,0,0,0,0,0,0,0,0,0,0,0,0,0,0],"split_type":[0,0,0,0,0,0,0,0,0,0,0,0,0,0,0,0,0,0,0,0,0,0,0,0,0,0,0,0,0,0,0,0,0],"sum_hessian":[2.4885981E3,1.323216E2,2.3562766E3,1.3095369E2,1.3679093E0,5.5087445E2,1.8054021E3,1.2728796E2,4.235865E2,1.21642E3,5.8898206E2,8.0178856E1,4.7109097E1,1.4784232E1,4.0880225E2,1.9837408E2,1.0180459E3,9.164616E0,5.7981744E2,1.506936E1,6.51095E1,4.871128E0,4.223797E1,3.524965E2,5.6305756E1,1.005783E2,9.779579E1,7.804439E2,2.3760199E2,8.017583E0,1.1470325E0,5.360679E2,4.3749577E1],"tree_param":{"num_deleted":"0","num_feature":"10","num_nodes":"33","size_leaf_vector":"1"}},{"base_weights":[-3.159346E-3,9.344625E-1,-5.156704E-2,9.422932E-1,1.2071659E-2,8.456958E-2,-1.1835389E-1,9.639049E-2,6.348958E-1,-3.8164374E-1,1.1744275E-1,4.7704678E-2,-2.1684273E-1,-1.5870672E-1,8.993652E-2,5.161678E-1,-5.282022E-1,2.0152089E-1,5.357411E-2,-4.2661767E-2,4.9921823E-1,-1.5213674E-1,-3.8046867E-1,-3.7171096E-2,1.1897813E-2,7.733875E-2,-2.734084E-3,-5.911218E-2,1.0363994E-1,-4.818637E-3,5.125882E-2,4.6100855E-2,-6.7894993E-4,-1.1065857E-2,6.016438E-2,1.1625473E-2,5.6564894E-2,-3.7645586E-2,-9.337166E-3,-4.1239243E-2,-2.812554E-3],"categories":[],"categories_nodes":[],"categories_segments":[],"categories_sizes":[],"default_left":[0,0,0,0,0,0,0,0,0,0,0,0,0,0,0,0,0,0,0,0,0,0,0,0,0,0,0,0,0,0,0,0,0,0,0,0,0,0,0,0,0],"id":32,"left_children":[1,3,5,7,-1,9,11,-1,13,15,17,19,21,23,-1,25,27,29,31,33,35,37,39,-1,-1,-1,-1,-1,-1,-1,-1,-1,-1,-1,-1,-1,-1,-1,-1,-1,-1],"loss_changes":[1.117174E2,6.562576E-1,2.1289976E1,1.8217468E-1,0E0,1.1859413E1,2.5697224E1,0E0,2.4056826E0,6.984802E0,3.8602924E0,2.3912216E1,1.0382023E1,2.5390455E-1,0E0,1.0926187E0,4.978339E0,2.4169533E1,1.0112273E1,2.148178E1,2.4204369E0,9.301569E0,3.1240044E0,0E0,0E0,0E0,0E0,0E0,0E0,0E0,0E0,0E0,0E0,0E0,0E0,0E0,0E0,0E0,0E0,0E0,0E0],"parents":[2147483647,0,0,1,1,2,2,3,3,5,5,6,6,8,8,9,9,10,10,11,11,12,12,13,13,15,15,16,16,17,17,18,18,19,19,20,20,21,21,22,22],"right_children":[2,4,6,8,-1,10,12,-1,14,16,18,20,22,24,-1,26,28,30,32,34,36,38,40,-1,-1,-1,-1,-1,-1,-1,-1,-1,-1,-1,-1,-1,-1,-1,-1,-1,-1],"split_conditions":[3E0,3E0,8.257744E1,8.1545456E1,1.2071659E-2,6.703874E1,7E0,9.639049E-2,8.4125E1,5.43E1,7.794704E1,6E0,8.34E1,8.261539E1,8.993652E-2,6.481904E1,1E1,6.35E1,5.48E1,1E0,5.85E1,8E0,9.575736E1,-3.7171096E-2,1.1897813E-2,7.733875E-2,-2.734084E-3,-5.911218E-2,1.0363994E-1,-4.818637E-3,5.125882E-2,4.6100855E-2,-6.7894993E-4,-1.1065857E-2,6.016438E-2,1.1625473E-2,5.6564894E-2,-3.7645586E-2,-9.337166E-3,-4.1239243E-2,-2.812554E-3],"split_indices":[3,6,1,0,0,1,3,0,0,0,1,3,0,0,0,1,3,0,0,6,0,3,1,0,0,0,0,0,0,0,0,0,0,0,0,0,0,0,0,0,0],"split_type":[0,0,0,0,0,0,0,0,0,0,0,0,0,0,0,0,0,0,0,0,0,0,0,0,0,0,0,0,0,0,0,0,0,0,0,0,0,0,0,0,0],"sum_hessian":[2.4593186E3,1.1983808E2,2.3394807E3,1.185394E2,1.298686E0,7.6989E2,1.5695906E3,1.0875748E2,9.7819195E0,5.0011284E1,7.198788E2,5.845377E2,9.8505286E2,2.5449877E0,7.236932E0,6.6642723E0,4.334701E1,3.098413E2,4.1003745E2,4.8781195E2,9.672574E1,7.07286E2,2.7776688E2,1.2486084E0,1.2963794E0,4.236407E0,2.4278657E0,4.2269363E1,1.0776492E0,1.7234088E2,1.3750044E2,5.205386E1,3.5798358E2,4.4199432E2,4.5817627E1,1.4704779E1,8.202096E1,1.4570236E2,5.615836E2,2.5453456E2,2.3232319E1],"tree_param":{"num_deleted":"0","num_feature":"10","num_nodes":"41","size_leaf_vector":"1"}},{"base_weights":[8.234989E-3,9.2562103E-1,-3.6139883E-2,9.66981E-2,5.292281E-1,1.7824079E-1,-7.322079E-2,1.3387866E-1,7.578533E-1,2.4563023E-1,-4.2287424E-1,1.5215606E-2,-1.779946E-1,-1.3650833E-1,5.936609E-2,3.6951439E-3,8.704519E-2,-1.7841072E-1,3.2955366E-1,-6.099848E-1,1.826367E-1,-6.5967536E-1,3.665561E-2,-2.77179E-1,-2.5304547E-2,5.2761342E-2,-4.9251E-2,7.469463E-2,-3.0633435E-2,2.9064804E-2,6.265283E-2,-8.2280464E-2,-1.5700262E-2,-2.0460565E-2,1.426031E-1,2.6678456E-2,-7.056018E-2,5.135739E-2,2.325608E-3,1.208923E-2,-3.3017363E-2,9.918922E-3,-1.6657578E-2],"categories":[],"categories_nodes":[],"categories_segments":[],"categories_sizes":[],"default_left":[0,0,0,0,0,0,0,0,0,0,0,0,0,0,0,0,0,0,0,0,0,0,0,0,0,0,0,0,0,0,0,0,0,0,0,0,0,0,0,0,0,0,0],"id":33,"left_children":[1,3,5,-1,7,9,11,13,15,17,19,21,23,25,-1,-1,-1,27,29,31,33,35,37,39,41,-1,-1,-1,-1,-1,-1,-1,-1,-1,-1,-1,-1,-1,-1,-1,-1,-1,-1],"loss_changes":[9.872548E1,1.322731E0,1.840359E1,0E0,1.0537772E0,1.3934984E1,1.828423E1,8.142175E-1,6.0775757E-1,1.1007076E1,4.052594E0,1.5518893E1,1.3670952E1,1.3300925E0,0E0,0E0,0E0,6.322406E0,2.7892551E0,2.454896E0,4.616272E0,1.5933743E0,6.6265993E0,1.1587921E1,6.290888E0,0E0,0E0,0E0,0E0,0E0,0E0,0E0,0E0,0E0,0E0,0E0,0E0,0E0,0E0,0E0,0E0,0E0,0E0],"parents":[2147483647,0,0,1,1,2,2,4,4,5,5,6,6,7,7,8,8,9,9,10,10,11,11,12,12,13,13,17,17,18,18,19,19,20,20,21,21,22,22,23,23,24,24],"right_children":[2,4,6,-1,8,10,12,14,16,18,20,22,24,26,-1,-1,-1,28,30,32,34,36,38,40,42,-1,-1,-1,-1,-1,-1,-1,-1,-1,-1,-1,-1,-1,-1,-1,-1,-1,-1],"split_conditions":[1.0714286E-1,7.9583336E1,1.7857143E-1,9.66981E-2,8.4125E1,9.0666664E1,8.611934E1,9.5E1,5E1,5.5E1,1.3E1,6.598976E1,9E1,9.297861E1,5.936609E-2,3.6951439E-3,8.704519E-2,7.810268E1,1E0,9.739232E1,9.413601E1,5.125E1,3.6E1,6.3E1,3.9285713E-1,5.2761342E-2,-4.9251E-2,7.469463E-2,-3.0633435E-2,2.9064804E-2,6.265283E-2,-8.2280464E-2,-1.5700262E-2,-2.0460565E-2,1.426031E-1,2.6678456E-2,-7.056018E-2,5.135739E-2,2.325608E-3,1.208923E-2,-3.3017363E-2,9.918922E-3,-1.6657578E-2],"split_indices":[4,0,4,0,0,0,1,5,5,5,2,1,5,1,0,0,0,1,6,1,1,0,2,0,4,0,0,0,0,0,0,0,0,0,0,0,0,0,0,0,0,0,0],"split_type":[0,0,0,0,0,0,0,0,0,0,0,0,0,0,0,0,0,0,0,0,0,0,0,0,0,0,0,0,0,0,0,0,0,0,0,0,0,0,0,0,0,0,0],"sum_hessian":[2.4233362E3,1.1089449E2,2.3124417E3,9.9113464E1,1.178103E1,3.4043475E2,1.9720068E3,4.8975463E0,6.883484E0,3.0664856E2,3.3786194E1,1.0698411E3,9.021657E2,3.5266874E0,1.3708588E0,1.1093227E0,5.7741613E0,5.047699E1,2.5617157E2,2.5804794E1,7.9813986E0,3.2023796E1,1.0378173E3,5.4641205E2,3.557537E2,1.0625135E0,2.4641738E0,5.5428505E0,4.493414E1,2.2824826E2,2.7923313E1,1.7000986E1,8.803808E0,6.723027E0,1.2583716E0,1.2853745E0,3.073842E1,2.7341639E1,1.01047565E3,6.404608E1,4.8236597E2,1.8926436E2,1.6648933E2],"tree_param":{"num_deleted":"0","num_feature":"10","num_nodes":"43","size_leaf_vector":"1"}},{"base_weights":[2.0682506E-2,9.144767E-1,-1.8611917E-2,9.235375E-1,1.3452165E-2,8.893927E-2,-8.6185314E-2,9.327658E-2,1.9214837E-2,-9.212364E-3,5.833733E-1,-4.0767238E-1,-4.350812E-2,1.5826821E-1,-1.4755459E-1,7.085E-1,4.3355554E-1,-1.2325955E-1,-5.8628523E-1,1.5848325E-1,-1.2474981E-1,3.234346E-2,-1.1274264E-2,-9.972771E-3,-8.021068E-2,7.995396E-2,1.8946854E-2,6.6724144E-2,-4.1937117E-2,-7.6206014E-3,-1.1920881E-1,-6.440099E-2,-8.623182E-3,1.5554348E-1,1.24233505E-2,-4.2086497E-2,-4.8428695E-3],"categories":[],"categories_nodes":[],"categories_segments":[],"categories_sizes":[],"default_left":[0,0,0,0,0,0,0,0,0,0,0,0,0,0,0,0,0,0,0,0,0,0,0,0,0,0,0,0,0,0,0,0,0,0,0,0,0],